http://purl.bioontology.org/ontology/LNC/2857-1 -0.2576143 0.16941997 -0.03946763 -0.012618887 0.31355822 -0.22884905 0.0376448 -0.027680742 -0.15901679 0.058365446 0.16563465 0.009372703 -0.11058977 -0.09370585 -0.0009748165 0.12955493 -0.14401092 -0.030151546 -0.12870425 0.023479143 -0.12938951 -0.07722397 -0.16772436 0.21772458 0.18857679 -0.025826432 0.057743885 -0.0003416769 0.09932813 0.20008542 -0.059689038 -0.026929086 -0.04882216 0.12096017 0.31586325 0.06342551 -0.1543299 0.09611495 -0.12917858 -0.06921621 -0.24005988 -0.204755 0.0290054 -0.1002584 -0.17047514 0.06872691 0.17980644 -0.11554915 0.3330568 0.09328588 0.05032045 0.23385736 -0.04305396 -0.06969269 0.24059732 -0.13912444 0.08558012 0.010584666 0.067303814 -0.24506037 0.045201488 -0.11799668 0.01790826 0.104071654 -0.23542379 0.13610125 0.07655523 0.035945717 -0.08813256 0.2989026 -0.048603427 0.028253002 0.15452653 -0.10394735 -0.17239822 0.44797084 -0.020821946 0.051572993 0.24236403 -0.18652952 -0.0020514939 -0.174981 0.034195475 0.23960721 -0.009569043 0.103155635 0.17073664 -0.19691287 0.058826447 -0.1465601 0.003213409 0.28104055 0.038680602 -0.114632 -0.026097842 0.0875698 -0.017456641 0.09840467 0.12676206 0.06565916 0.012929089 0.15920916 -0.047383696 0.09805645 -0.08869785 -0.017201832 0.09723973 -0.018209744 0.1084261 0.08206986 -0.11426566 -0.118736014 0.054110456 0.07993241 0.091599375 -0.016175332 -0.1205304 0.08291449 0.15191272 0.13201982 -0.17900749 0.026567798 -0.089260526 -0.22988163 -0.11534082 -0.17610648 0.032760676 0.31226015 -0.12729074 -0.044121128 -0.05192151 0.055441245 0.0016460206 0.028796796 -0.0075457203 0.16178873 0.06855935 0.3149166 0.3028729 -0.22694045 -0.1717522 -0.073737554 0.03168685 0.15434456 0.099702716 -0.07817217 0.098923616 0.112207666 -0.1448686 -0.027025394 -0.050232116 -0.006560348 0.0100991465 0.22515489 -0.0633243 0.004097566 -0.028107798 -0.09376389 0.055751387 -0.034679003 -0.3046386 0.16895613 -0.10996863 -0.15080447 -0.06769991 -0.024392247 0.21489468 0.038025517 0.055159695 -0.040984306 -0.033223312 0.12295391 -0.09652163 -0.03165093 -0.08884852 0.020977912 -0.03583628 -0.074771866 -0.08080696 0.2097128 0.32618958 -0.019158484 0.11715686 -0.09852043 -0.18007657 0.038608555 0.091585115 -0.17970876 0.0799789 -0.1376842 -0.001689522 -0.09770443 -0.07687445 -0.16728468 -0.013431605 0.21632503 -0.048995085 0.2603434 0.13490643 -0.20501852 -0.050807215 -0.15797743 -0.049118694 0.035652973 0.1133227 -0.045456223 -0.042405862 -0.030025778 0.39508235 -0.20281568 -0.06579365 0.15928468 -0.027917247 0.15421768 -0.2636635 -0.03370451 0.14387137 0.17393024 0.17146063 -0.26553947 -0.01097081 0.008781515 0.04378029 -0.09787658 0.16995324 0.080350384 -0.072695896 0.07396587 0.044401444 0.2558496 0.06421461 0.013633149 0.060103655 0.19362843 0.22339235 0.27460837 -0.0635649 0.07937386 0.18922915 -0.26481164 -0.14729905 0.12232765 -0.11091706 0.074248806 0.05247062 -0.12815197 -0.1936359 -0.08857643 0.010731192 -0.19515291 -0.01930575 0.24983412 -0.16907562 -0.060519658 0.082224004 0.31662288 -0.15965809 -0.061681997 0.017716499 0.2236817 -0.048661165 0.0128428945 0.16263744 0.07076353 0.2658909 -0.16981581 0.17772938 -0.11995287 -0.0016598083 -0.11292391 -0.23959976 -0.12597032 -0.26840112 0.039712735 0.11050354 -0.26115096 0.17854653 0.0053399256 0.05252958 -0.09973726 -0.02425815 -0.15968205 -0.15859489 -0.03982411 -0.10278895 -0.14132775 -0.020464635 0.029874893 0.036106255 -0.08559251 -0.13191871 0.043222036 -0.06714918 -0.012909182 -0.13550252 0.103604674 -0.03076116 -0.19540985 -0.07024195 -0.043677155
http://purl.bioontology.org/ontology/LNC/2706-0 -0.102672026 0.18756224 -0.07622158 -0.022877567 0.17900304 -0.20439875 0.03419168 -0.11840125 -0.13590662 0.11149684 0.25656608 -0.028733699 -0.079349376 -0.026456768 -0.044525925 0.105208986 -0.20757088 -0.08383857 -0.20005837 -0.026381345 -0.014117058 -0.18686397 -0.0718037 0.063555375 0.1762767 -0.09612954 0.07788828 0.10917425 0.11001346 0.21857075 -0.022367429 -0.0488445 -0.07984116 0.033544105 0.25925687 0.03195913 -0.19117138 0.23274635 -0.14648645 -0.0011190904 -0.33484313 -0.22628714 0.053032864 -0.042834084 -0.19426222 0.14759724 0.14586204 -0.1669759 0.14063947 0.09518514 0.12569112 0.21460892 0.050839443 -0.013232094 0.31349808 -0.13250981 0.097874016 0.0045749503 0.10792712 -0.19275576 -0.0009526374 -0.057282157 0.11825124 0.09285001 -0.13993666 0.07187167 0.098078206 -0.038878236 -0.034421653 0.23542598 -0.042491067 0.11046685 0.00962262 -0.10255834 -0.19670376 0.42450052 0.08263216 0.037161123 0.18989527 -0.09995854 -0.060184125 -0.123394035 0.006698322 0.20478345 -0.0014033434 0.15886287 -0.045078166 -0.059669286 -0.021284234 -0.07447784 0.03546504 0.23400831 0.063381374 0.052914552 -0.07464723 0.23932058 -0.057458874 0.03211436 0.2469046 0.1242481 -0.06829563 0.11145668 -0.12531543 0.09252581 -0.25808108 0.0071549034 -0.011811238 0.022502337 0.048125908 0.011288646 -0.13524586 -0.16281563 0.11390025 0.091702335 0.0848327 -0.12871116 -0.2257995 0.081959985 0.020213833 0.20588307 -0.19610772 -0.07155598 -0.13824004 -0.29138863 -0.06149948 -0.061265294 -0.0633822 0.30122343 -0.09188818 -0.18238427 -0.04006467 0.022943385 -0.09967191 -0.00019974021 -0.16652592 0.03834921 -0.07327947 0.17366545 0.25286144 -0.048587613 -0.053592373 -0.16559426 0.05296582 0.16067867 0.1908101 0.029329345 0.09132478 0.119491614 0.025476193 0.0048783743 0.0658848 0.07776378 0.07640295 0.10297371 -0.0871238 -0.16125312 -0.061391085 -0.043832153 0.006721448 0.058930773 -0.20526491 0.1972482 -0.20326997 -0.112667635 0.08767092 0.015087316 0.21320152 -0.008308589 0.13154684 0.12474446 0.03833339 -0.0036084007 -0.08866481 -0.040073812 -0.09764283 0.27115142 0.03326111 -0.055545975 -0.046194907 0.15436524 0.21910697 0.03613849 0.058364224 -0.12262827 -0.16514832 -0.055292837 0.028495561 -0.003381033 0.0124104535 -0.06274228 0.10440597 0.016452938 -0.01936895 0.024461247 -0.089132465 0.21429044 0.005091105 0.17141818 0.10720766 -0.20922159 -0.14187275 -0.1962043 0.013804914 -0.048588496 0.15858406 -0.03789388 -0.08409102 -0.046441007 0.31985137 -0.2194065 -0.029261522 0.26171347 -0.095479995 -0.09685426 -0.16200942 0.026579436 0.07561153 0.19879624 0.076668575 -0.34682196 -0.117076844 0.037385236 0.049296565 -0.08446551 0.20119265 0.06031031 0.090096064 0.054306775 0.1299089 0.26144233 -0.0014364169 0.09443211 0.08029143 0.22665694 0.16379151 0.35555476 -0.041772623 0.07127439 0.10042669 -0.24020864 -0.09646333 0.19065654 -0.1368072 0.20175324 0.14224067 -0.337438 -0.033350587 -0.12605478 -0.13071388 -0.12701991 -0.045889236 0.28629917 -0.15726148 -0.022654314 0.10507975 0.40111762 -0.09713603 -0.2627676 0.012188433 0.19441347 -0.033562962 0.010695715 0.24149646 0.08160246 0.25210914 -0.15101032 0.1325656 -0.11722826 -0.103123814 -0.05437478 -0.19074759 -0.16811034 -0.19952786 0.12708744 0.004066223 -0.2778859 0.3122716 0.14193957 -0.066773035 -0.14014578 -0.20654912 -0.04989749 -0.07015868 0.124459065 -0.10472769 -0.09198117 -0.08602313 -0.050610982 -0.012723107 -0.057539895 -0.023939656 -0.006806451 -0.15896606 0.05040873 -0.16896875 0.001825024 -0.13810804 -0.21892256 -0.077492036 -0.20824601
http://purl.bioontology.org/ontology/LNC/12230-9 -0.13154669 0.057777617 0.019369304 -0.029574852 0.23068446 -0.13767387 0.046202037 -0.0004368369 -0.14609067 0.029086523 0.07751624 0.00955005 0.07433119 0.07191877 -0.05730715 0.0818763 -0.101775266 -0.05625089 -0.11583222 -0.011826575 -0.09187622 -0.06257584 -0.118703015 0.23783118 0.22400177 0.032281466 0.08772365 -0.056397818 0.09434784 0.17287092 0.001453139 -0.115981355 -0.06329925 0.12163624 0.19661213 0.028598217 -0.1249232 -0.01937662 -0.09643926 -0.059786953 -0.16189471 -0.18944883 0.06564068 -0.007984368 -0.12068495 0.069827646 0.15991111 -0.012785357 0.26384485 0.0657948 0.05080608 0.12184279 -0.08192707 0.067085795 0.15480287 -0.06741978 0.07722764 0.020263357 0.02673286 -0.15340348 -0.060920656 -0.06306832 0.010174633 0.082225606 -0.1436416 0.17921305 0.110737674 0.013423325 -0.0974023 0.27602708 -0.038251817 -0.023787333 0.023551408 0.0021688894 -0.2342393 0.34583458 0.013935955 -0.067253955 0.2588447 -0.08253842 0.037470125 -0.11976937 0.17318024 0.18831372 0.1042983 0.0439812 0.1103911 -0.068439424 0.0051036114 -0.093948945 -0.011299996 0.21385497 0.09308766 -0.06226429 0.030449191 -0.0046983655 -0.027612554 0.09851476 0.041123822 -0.005323193 0.004240904 0.07224102 -0.115789756 0.04921428 -0.02676874 0.04837797 0.031704724 0.09453751 0.06726212 0.055209935 -0.09181218 -0.04593194 0.11108917 0.16600592 0.055071123 0.06144291 -0.09071313 0.12768507 0.11132375 0.06961042 -0.096532404 0.06687668 -0.029137425 -0.16644576 -0.07631356 -0.18476501 0.010816422 0.27995092 -0.05430545 -0.06919933 -0.10891207 -0.052872896 -0.023768151 0.019117327 -0.12482737 0.19484769 -0.019339755 0.2768541 0.21310177 -0.18621428 -0.2097757 -0.117988765 0.09202757 0.111736916 0.09227294 -0.08846385 0.097919315 0.06260983 -0.083360285 0.022359189 -0.09685559 -0.06346422 -0.03641575 0.26035208 -0.12922263 -0.07752619 0.018349543 -0.039164744 -0.035466876 0.011849291 -0.28235668 0.14369738 -0.10700907 -0.18317673 -0.053286422 0.08090896 0.17522372 0.06375576 -0.058571514 -0.05086623 -0.087196484 0.15058012 -0.081274234 0.036791574 -0.059189282 0.10290492 0.022913767 -0.054979667 -0.028479809 0.15392545 0.34407946 0.051496804 0.039473195 -0.11282401 -0.06034131 0.0001725741 -0.030631306 -0.13151969 -0.003362613 -0.09858452 -0.08754406 -0.0810869 -0.009929233 -0.09102766 -0.0077840327 0.17600548 -0.0961674 0.21748702 0.1001877 -0.09350712 -0.027653186 -0.09019283 -0.033567484 0.044349022 0.11300187 -0.09875186 -0.09391223 -0.03378057 0.29686075 -0.14832315 0.084717356 0.10230465 -0.05270746 0.06338711 -0.17976588 0.021959856 0.14326608 0.07197729 0.15311284 -0.19797423 0.049984664 0.043372914 0.008907603 -0.114522405 0.2298359 0.21049625 -0.089384235 0.11870387 0.04148397 0.205627 0.052826233 0.047593262 0.06296859 0.14170149 0.24790645 0.1926707 -0.0071615605 0.11772403 0.15577577 -0.15191057 -0.12955716 0.25044858 -0.1257336 0.13529973 0.00047318335 0.018125033 -0.113107406 -0.091902636 -0.059942007 -0.16507474 0.04081956 0.2037885 -0.08296671 -0.08205111 -0.019419983 0.17405878 -0.15228768 0.047522195 0.001768989 0.07793944 0.0055285487 0.004314838 0.17068622 0.0510926 0.21691687 -0.20305388 0.1047942 -0.038739473 0.054882076 -0.13995266 -0.06357564 -0.10970266 -0.24761115 0.08341052 0.038970534 -0.19269517 0.112423904 -0.02729607 0.07162941 -0.15538824 0.023987394 -0.10253039 -0.11564112 -0.06663424 0.035662953 -0.12306318 0.095945895 -0.03120333 0.042206783 -0.1817732 0.007823304 0.12419932 -0.10133433 0.0466363 -0.099464305 0.08413505 0.03864231 -0.16025922 -0.122657806 0.026590832
http://purl.bioontology.org/ontology/LNC/2500-7 -0.0578836 0.09139953 -0.045466304 -0.04998137 0.15183768 -0.15045148 0.07535056 -0.10768972 -0.14061005 0.06329046 0.21212026 -0.018968236 0.022915022 0.04187833 -0.08662655 0.076454125 -0.20250982 -0.028255945 -0.13090552 0.00024625196 -0.008012937 -0.1468902 -0.0055541396 0.039680485 0.19992048 -0.062433094 0.10087505 0.06108858 0.10345812 0.19300324 0.0046916166 -0.106073365 -0.095170066 0.05433527 0.20817332 0.011275034 -0.18125479 0.19395855 -0.095080525 -0.00049848226 -0.2622702 -0.19752885 0.07615023 -0.016101345 -0.17970827 0.1565956 0.15337816 -0.054092858 0.096603334 0.09864711 0.13468131 0.1779164 0.012532077 0.054202307 0.2616293 -0.06773139 0.1136176 0.03067323 0.10027303 -0.17183387 -0.03496503 -0.029987687 0.07945165 0.08829794 -0.078231856 0.0775477 0.09267335 -0.020170802 -0.053714823 0.19281581 -0.018680068 0.06849043 -0.028133774 -0.031404674 -0.23035423 0.36856508 0.09926992 0.001200249 0.16476896 -0.074424624 -0.051674288 -0.09429781 0.051360987 0.1455719 0.055218194 0.11329895 -0.04213714 -0.010921074 -0.03672495 -0.051624514 0.03043754 0.21910167 0.12955905 0.050261736 -0.02814793 0.17428376 -0.01914908 0.043297105 0.17333227 0.057931162 -0.05123087 0.08260248 -0.16429585 0.105991654 -0.20697948 0.02609546 -0.080414526 0.07191208 0.035818912 -0.013403255 -0.113827035 -0.1026473 0.1568435 0.14662024 0.065784626 -0.061674416 -0.18395475 0.09513841 0.02859648 0.166384 -0.15727006 -0.0345188 -0.0943215 -0.2519095 -0.05658874 -0.066628136 -0.06108118 0.25923473 -0.054095704 -0.18749131 -0.090310656 -0.028762996 -0.11848492 -0.012808298 -0.20386301 0.07435205 -0.09188874 0.1447693 0.20767441 -0.05323232 -0.08052225 -0.14659624 0.0742949 0.11769498 0.17163524 -0.036525328 0.077490896 0.11026439 0.04412297 7.638691e-05 -0.007901722 0.06292266 0.042506993 0.13527475 -0.07668296 -0.20551115 0.002104356 0.02781559 0.015775332 0.109943025 -0.21312343 0.14359048 -0.17482564 -0.14142193 0.111182064 0.053988595 0.190525 0.037095 0.06549573 0.058663275 -0.014567094 0.010319089 -0.09014249 -0.011863677 -0.08766504 0.27431408 0.044198696 -0.055517234 -0.08134869 0.12665047 0.21441796 0.037486013 0.040266417 -0.11803712 -0.12452483 -0.04536264 -0.011348565 0.014462711 0.0013794934 -0.045195825 0.053445794 0.03151718 0.030690603 0.042616185 -0.06590593 0.208087 -0.0150810685 0.17531525 0.1001752 -0.18611683 -0.07450674 -0.15386531 0.030105896 -0.02760812 0.1623671 -0.06835657 -0.095589936 -0.03415911 0.27044797 -0.20280835 0.044107947 0.20595697 -0.11187167 -0.11810338 -0.12591788 0.028096687 0.07739122 0.1479679 0.08502923 -0.30815473 -0.041130845 0.05625396 0.053188805 -0.127498 0.23034878 0.10262612 0.012526627 0.06179596 0.09875362 0.18836272 -0.0142509695 0.08757347 0.102548465 0.19230965 0.15342554 0.28293186 -0.03287916 0.060457822 0.065127276 -0.1427946 -0.096473485 0.23964849 -0.12011934 0.1884537 0.10254645 -0.27765635 -0.054955438 -0.15490097 -0.14191237 -0.09329872 -0.001196797 0.26681364 -0.11850781 -0.041376926 0.022159524 0.3064769 -0.095621884 -0.17157216 -0.01858866 0.116530605 -0.0061700577 0.014203254 0.1616272 0.10696025 0.22014129 -0.17022732 0.10522888 -0.061041743 -0.05392298 -0.07459188 -0.08623801 -0.14787644 -0.19631933 0.16528437 -0.00075014564 -0.2402284 0.30493665 0.11689464 -0.024889667 -0.15569523 -0.1366882 -0.022124935 -0.04374903 0.060086485 -0.05848924 -0.10763462 -0.05091516 -0.03510356 -0.0050013433 -0.09913288 0.024062356 0.069394045 -0.17173155 0.03382267 -0.123318754 0.0136363935 -0.115783215 -0.17650369 -0.1321765 -0.15026227
http://purl.bioontology.org/ontology/LNC/15202-5 -0.1277412 0.18199368 -0.1261828 0.061144616 0.25810948 -0.31468955 0.036086317 -0.14274734 -0.24870387 0.19660941 0.4567913 -0.07545423 -0.19929983 -0.10871352 -0.04334371 -0.0076072663 -0.30705285 -0.005957812 -0.29276097 0.048247267 -0.054139595 -0.24366741 -0.07116906 -0.040507387 0.26552135 -0.11257671 0.16234773 0.1569102 0.068080455 0.23927078 -0.076150425 0.0046634083 -0.059182327 0.089828 0.37052402 0.087579004 -0.33457446 0.20313963 -0.14377545 0.019167762 -0.44328475 -0.23371056 0.014374568 -0.13390206 -0.27665716 0.24199916 0.2244517 -0.099539876 0.27308336 0.054488715 0.19801031 0.2722138 0.14193521 -0.05921729 0.37357315 -0.22692938 0.15150829 0.0051468746 0.15398161 -0.30297393 0.06056905 -0.070315085 0.15355414 0.097544216 -0.15596566 0.045775495 0.13541031 0.041892093 0.010249466 0.19187091 -0.06441863 0.1391125 0.031720858 -0.1971355 -0.30584547 0.5224016 0.0761445 0.004412509 0.2535888 -0.11778537 -0.13139494 -0.22141507 -0.066959165 0.27797017 -0.0611435 0.0703464 -0.043043133 -0.020113874 -0.029292922 -0.1394696 0.074270725 0.36515293 0.17383848 0.072349764 -0.12094092 0.36709616 -0.10428442 -0.00487893 0.38599318 0.058898747 -0.14536047 0.11509505 -0.19057451 0.15142676 -0.31135476 0.010130218 0.046732962 0.009590023 0.06273231 -0.0037603625 -0.15604465 -0.20544118 0.045786805 -0.013764741 0.12827632 -0.23414767 -0.3486424 0.10717798 0.03609653 0.2197242 -0.2918385 -0.038946103 -0.12265128 -0.32817665 -0.119048275 -0.0939669 -0.07361784 0.3811876 -0.15521161 -0.18258023 -0.05357616 0.14861624 -0.13543399 -0.06223513 -0.08741101 0.08354145 -0.07988994 0.27381003 0.3637797 -0.08042856 -0.02973122 -0.21166413 -0.04614707 0.08283903 0.25383106 0.084999226 0.08140592 0.26026604 0.12110925 -0.026398132 0.03504408 0.18682362 0.1066273 0.01642315 -0.11081716 -0.2883829 -0.13890879 -0.07197913 -0.039236363 0.15050672 -0.21681908 0.22853827 -0.1638393 -0.13623834 0.12716456 -0.10355625 0.28399992 -0.10300771 0.2638722 0.05051432 0.06570066 -0.034654815 -0.087919645 -0.07608094 -0.06763673 0.2539979 -0.054759067 -0.07441379 -0.14152093 0.24824686 0.29121134 -0.049907975 0.053158537 -0.15222946 -0.22149335 -0.0806729 0.08608616 -0.06670796 0.1995358 -0.1447278 0.18865423 0.018389892 -3.9620707e-05 -0.04396566 -0.087709725 0.3398206 0.046625644 0.2434768 0.095175505 -0.32694033 -0.08138817 -0.20165561 0.029391974 -0.123527385 0.14126945 -0.0015193291 -0.08244352 0.10026957 0.45699838 -0.32840368 -0.07974267 0.27493092 -0.20478046 0.020107001 -0.17355762 -0.032869015 0.047818832 0.21547568 0.12619443 -0.37111712 -0.12606117 0.06287754 0.13480678 -0.15498038 0.2198599 -0.03126169 0.044623394 0.08223694 0.17274328 0.25939286 -0.0992192 0.10663017 0.12121842 0.30512962 0.11594146 0.41959643 -0.01976951 0.11313418 0.1123281 -0.25776118 -0.011575868 0.1439174 -0.073754475 0.15968972 0.21879579 -0.52665716 -0.08930031 -0.12746671 -0.12551256 -0.109534666 -0.055554036 0.36689776 -0.2139901 -0.03621018 0.1818376 0.592009 -0.10118496 -0.27336243 -0.052459285 0.2116322 -0.0630019 -0.059058502 0.19537647 0.18259646 0.3203992 -0.1772627 0.18221003 -0.10980372 -0.10336485 -0.06350939 -0.32082403 -0.142788 -0.25146165 0.0598961 0.042140324 -0.23760399 0.38613322 0.14739351 -0.034529805 -0.20035513 -0.26941097 -0.00836401 -0.104485124 0.11488345 -0.15936561 -0.13163175 -0.2076326 -0.097718775 0.0046810918 -0.049943183 -0.10077072 -0.13011818 -0.18396303 0.056505315 -0.19333324 0.057786874 -0.14893025 -0.27102566 -0.05415326 -0.14085105
http://purl.bioontology.org/ontology/LNC/4086-5 -0.12213512 0.14033131 -0.04506159 0.026778635 0.20109169 -0.20647922 0.086201616 -0.056587342 -0.1146595 0.054529004 0.17145292 -0.015547856 0.0065652714 0.012145676 -0.0448728 0.05991293 -0.16108336 -0.04263719 -0.18086785 0.0017804818 -0.059102 -0.095746465 -0.07402036 0.06257506 0.20038532 -0.046887204 0.097012974 -0.025559029 0.0803858 0.16743098 0.015058131 -0.055646714 -0.012996912 0.093115725 0.22227137 0.019518286 -0.16505897 0.10763256 -0.11449537 -0.014972109 -0.18445417 -0.18463835 0.020012477 -0.06722869 -0.17308223 0.079539664 0.14519858 -0.039192814 0.17792462 0.09042339 0.07439617 0.12653895 -0.02522346 0.057525996 0.19721152 -0.105060786 0.071834154 -0.018710103 0.09754944 -0.16177058 -0.017654374 0.0037303253 0.07002711 0.06567726 -0.11150427 0.119922034 0.12919393 -0.004516517 -0.08870208 0.23921706 -0.0236537 0.08972827 0.08782639 -0.07866614 -0.18420257 0.31668785 0.020278217 0.03464629 0.21479852 -0.111310564 -0.011580477 -0.13715169 0.0871888 0.15581429 0.014542878 0.11784216 0.02004931 -0.038539946 -0.027144719 -0.09840332 0.022814939 0.2317468 0.07872776 0.001096525 -0.020521576 0.11396003 -0.01830313 0.043630492 0.14675921 0.061967313 -0.03615549 0.11384181 -0.0929986 0.11472352 -0.12881522 0.040373456 0.05060922 -0.005920025 0.045277882 0.024208082 -0.09077716 -0.103839904 0.04937995 0.10054665 0.058002885 -0.049626272 -0.16164204 0.038695376 0.08836081 0.1308072 -0.13668284 0.0031370665 -0.085632846 -0.21462482 -0.071015656 -0.14644992 -0.023581507 0.2032089 -0.08465323 -0.10030033 -0.061975587 -0.019071637 -0.055202294 0.018451797 -0.116444886 0.1261404 -0.040947508 0.20007154 0.2561856 -0.10034373 -0.14754145 -0.14691901 0.013821194 0.12529127 0.14079969 0.006041395 0.09463671 0.13301261 -0.04873097 0.050207227 -0.026821382 0.020659734 -0.007023863 0.1483085 -0.06490161 -0.13751383 0.00069030025 -0.037736345 -0.00087977713 0.04809441 -0.245628 0.13152215 -0.16590919 -0.1052287 0.034541003 0.073755935 0.21502545 0.0110711055 0.046302076 0.005919905 -0.030377578 0.033099703 -0.074735604 0.0011722421 -0.053134624 0.1436418 0.038409024 -0.04722984 -0.08053418 0.15334655 0.23862028 0.045692 0.096507475 -0.13026762 -0.13081712 -0.021554757 0.034420688 -0.078121096 0.046894677 -0.07383476 -0.0056636934 -0.01975011 -0.026659435 -0.040599674 0.009431157 0.176413 0.009649145 0.19217557 0.1337435 -0.18809561 -0.057878792 -0.10925994 -0.053010147 -0.0017347042 0.10080812 -0.059854954 -0.069671996 -0.039085247 0.3210814 -0.22487095 0.03676298 0.15322869 -0.078221664 0.04167038 -0.1785841 0.0060166996 0.08684896 0.13018723 0.09033238 -0.2640596 -0.009594859 0.04516903 0.051440593 -0.06644785 0.16277033 0.09725464 -0.021483827 0.07132424 0.0377139 0.23370048 -0.028741961 0.08776777 0.068930216 0.17288956 0.22140543 0.2782348 -0.01309907 0.08484733 0.14217375 -0.1878517 -0.07183151 0.16930422 -0.104207896 0.15936102 0.07702796 -0.15969966 -0.05940366 -0.09644998 -0.026435154 -0.16408627 0.04030931 0.18578671 -0.08996685 -0.07510382 0.035297427 0.3090053 -0.10589348 -0.12902844 -0.0047988817 0.1250959 -0.011075697 -0.026309492 0.15194128 0.04585091 0.20574215 -0.14719918 0.08897134 -0.06760964 -0.0321348 -0.10030706 -0.13751876 -0.083056875 -0.1998598 0.042671405 0.043928437 -0.21786907 0.18223596 0.0641503 -0.025425974 -0.15150723 -0.13622376 -0.075219445 -0.08551303 0.049111947 -0.05392037 -0.13148679 -0.036599495 -0.02675991 0.021916771 -0.09256042 0.015259397 0.040964305 -0.12783392 0.047348056 -0.10088556 0.08025245 -0.02108304 -0.17129132 -0.106090024 -0.06365809
http://purl.bioontology.org/ontology/LNC/4659-9 -0.103457764 0.07849489 0.016037459 -0.012740223 0.16914588 -0.14415862 0.06667971 -0.010845321 -0.108343735 -0.0046308986 0.09557356 0.0012939726 0.031183377 0.04239729 -0.07337329 0.09660728 -0.13208523 -0.044481143 -0.12727422 -0.045234833 -0.06393164 -0.06959171 -0.10152651 0.17732847 0.16623498 -0.0244192 0.096842 -0.030099852 0.089918345 0.15314937 0.005076336 -0.068404675 -0.07783046 0.097609706 0.20237415 -0.010891304 -0.106777854 0.056489144 -0.11054666 -0.036898736 -0.15958221 -0.18818074 0.018523691 -0.04130302 -0.15119258 0.055735882 0.16444631 -0.034259573 0.18810792 0.10751537 0.05514946 0.13243504 -0.0683968 0.04987601 0.18805154 -0.08835347 0.07337989 -0.016103864 0.07873906 -0.15518306 -0.034807395 -0.042321306 0.022702442 0.07124067 -0.12542425 0.15540172 0.09155884 -0.021898674 -0.11178542 0.25316894 -0.033292387 0.041447006 0.031186616 -0.021313203 -0.19880086 0.33598924 0.038804937 -0.0024548841 0.25173762 -0.1455448 0.028787756 -0.12917908 0.147773 0.17389864 0.08961872 0.10171672 0.06780504 -0.10564755 -0.018019956 -0.0936302 -0.024855249 0.20621654 0.060123738 -0.026594935 -0.02172427 0.03939265 -0.028927036 0.11234051 0.067619056 0.06266051 -0.002382945 0.11850556 -0.091522425 0.053077344 -0.081484646 0.04133834 0.009666322 0.07372267 0.052629516 0.017329775 -0.116008356 -0.08916719 0.097274765 0.14143637 0.06041222 0.057848744 -0.10091125 0.054036986 0.11765148 0.13198078 -0.11808858 -0.001027565 -0.06691675 -0.1950828 -0.060242813 -0.10896383 -0.030087877 0.24565753 -0.061181094 -0.07701778 -0.04528409 -0.075868264 -0.026060218 0.03410753 -0.13311021 0.12277994 -0.02110618 0.22467789 0.18787658 -0.12671292 -0.18282735 -0.087709785 0.050690524 0.12929209 0.09419807 -0.04688136 0.11039694 0.08568561 -0.097383596 0.03241162 -0.05917532 -0.029756416 -0.029058188 0.20040125 -0.072192505 -0.07534183 0.020186791 -0.030242657 -0.01477229 0.034080803 -0.28358877 0.13876875 -0.1371069 -0.12132575 -0.0117257135 0.08902341 0.20295641 0.07943581 -0.008303775 0.009267586 -0.05385241 0.102285795 -0.07852339 0.0008014486 -0.06811153 0.14129315 0.052393116 -0.052295454 -0.03085563 0.13948011 0.25130662 0.06917331 0.07130865 -0.14095761 -0.09444187 0.0029885392 -0.01208135 -0.056079324 -0.01913887 -0.06278854 -0.037013773 -0.057097897 -0.028759386 -0.079419024 -0.010280701 0.17946692 -0.047158204 0.20393755 0.12832071 -0.15757683 -0.043155238 -0.1233434 -0.037088368 0.052314118 0.07833545 -0.051466104 -0.10602303 -0.05655131 0.30149522 -0.15676911 0.071612075 0.09270949 -0.061811823 0.017374234 -0.16788666 0.026070654 0.11677723 0.09837162 0.09458462 -0.23211834 0.0063133016 0.050057407 0.017156895 -0.055703968 0.19356543 0.16651502 -0.044059314 0.11733865 0.016227977 0.20770116 0.04655123 0.088221446 0.06282571 0.173723 0.23288605 0.2189587 -0.011640634 0.09549911 0.1445618 -0.17348254 -0.119033836 0.21276987 -0.12209589 0.12574667 0.034190413 -0.057756785 -0.090822354 -0.11454272 -0.035039626 -0.18086217 0.04202151 0.1865044 -0.102884114 -0.10387116 -0.011260741 0.23455374 -0.12790892 -0.09488662 0.036464393 0.113702625 0.027782366 0.030600557 0.16071588 0.03075994 0.21504514 -0.13343008 0.09523965 -0.04159608 -0.009942697 -0.12168284 -0.0872907 -0.11102505 -0.21826483 0.11786498 0.026141962 -0.20579255 0.18927303 0.0012055633 0.0059817624 -0.13962589 -0.043190144 -0.06549406 -0.074863784 -0.002507287 -0.015610188 -0.17061004 0.04846734 -0.030412469 0.021776635 -0.12693326 -0.008189871 0.12241248 -0.1278447 0.042839307 -0.13383694 0.081447616 -0.03002555 -0.14485364 -0.109533854 -0.06589118
http://purl.bioontology.org/ontology/LNC/2075-0 -0.091475025 0.09481213 -0.12942328 0.004229989 0.2507596 -0.18464455 -0.035816714 -0.05970108 -0.24230598 0.08863461 0.31401053 -0.022842059 -0.11941431 -0.05914458 -0.14663264 0.040054057 -0.27270606 0.0066676424 -0.19367097 0.016728144 -0.05697634 -0.23826355 -0.115816705 0.058831785 0.24101737 -0.07906295 0.15042946 0.058371052 0.10467403 0.19841932 -0.034537796 -0.069141254 -0.11352318 0.123052314 0.30570608 0.10980032 -0.21714827 0.15772311 -0.1330707 0.025342852 -0.34009618 -0.23280075 0.02935581 -0.11122437 -0.2002945 0.1836406 0.18087009 -0.03819142 0.260013 0.123156846 0.15471078 0.22462809 0.06904093 -0.029939374 0.30497423 -0.17457703 0.119590476 -0.015577387 0.13796619 -0.27943522 -0.00060025207 -0.09557689 0.084411845 0.035739657 -0.14078231 0.08829472 0.083271705 0.008382748 -0.018862356 0.21971701 -0.07421386 0.124086656 -0.027805941 -0.069313414 -0.2597488 0.4507897 0.09468484 -0.05246587 0.2505132 -0.19281593 -0.08813058 -0.17686914 -0.00397024 0.27193993 -0.008211101 0.050182357 0.0077975495 -0.08061173 -0.0066694035 -0.11494705 0.0008911144 0.27117905 0.1107537 0.001369712 -0.06680766 0.2065599 -0.07191978 0.0017671791 0.25052378 -0.0015503599 -0.091621265 0.04794783 -0.17425685 0.12314832 -0.23759526 0.0038375633 0.051318157 0.10074606 0.091716744 0.023060529 -0.15763201 -0.14074662 0.09279142 0.037328355 0.10040813 -0.10744044 -0.25503507 0.07574965 0.08182502 0.14559151 -0.21927553 -0.036507107 -0.13223533 -0.26156753 -0.10570774 -0.107511796 -0.06601612 0.3309828 -0.090745024 -0.14014877 0.011929585 0.029375644 -0.0647735 -0.06289128 -0.107030295 0.14985839 -0.0013238552 0.26196134 0.26679102 -0.115244724 -0.09702299 -0.1332493 0.014792437 0.09527763 0.15846404 -0.000690903 0.051031794 0.22109902 0.048021857 -0.014137909 0.0006249729 0.090412796 0.060595576 0.10412172 -0.04901084 -0.2079443 -0.111379206 0.0025975888 -0.038944785 0.096970305 -0.27192554 0.20539677 -0.096108384 -0.13414398 0.06856738 -0.066461466 0.21671912 0.010395437 0.16689515 0.035211843 0.025311548 0.0633548 -0.03596666 -0.021937253 -0.054599676 0.20000236 -0.003699108 -0.06888381 -0.09684676 0.15591666 0.26848543 -0.073347606 0.026128462 -0.10747321 -0.16362955 -0.05554543 0.045995664 -0.0426702 0.1112107 -0.09562597 0.12615356 -0.029441334 0.02478758 -0.08501877 -0.068339214 0.27505466 -0.009392355 0.2572955 0.09181975 -0.2714484 -0.06211515 -0.1686473 -0.023336338 0.0022415735 0.08904852 0.0045432285 -0.09472761 0.10506155 0.41715303 -0.2111951 0.0054294216 0.15464187 -0.16801558 -0.033345412 -0.18077505 0.03539964 0.09013011 0.16809523 0.17892878 -0.30010995 -0.08199649 0.079440325 0.0310794 -0.1507576 0.18107231 0.06241363 -0.012514492 0.09536966 0.13151297 0.19298777 -0.023163194 0.042318527 0.10347432 0.2204576 0.13162836 0.30412713 -0.008078514 0.12292384 0.116222225 -0.17409874 -0.026443036 0.19084796 -0.08640248 0.098067425 0.140266 -0.30841753 -0.114612974 -0.10275645 -0.108746275 -0.17155987 -0.031060813 0.32082462 -0.18088305 -0.07378962 0.09972773 0.4201216 -0.11211535 -0.22738433 0.006750348 0.13759689 0.0152569525 0.04386975 0.16236095 0.15651457 0.28623003 -0.12145786 0.13784498 -0.027835729 -0.014068767 -0.07981274 -0.26412487 -0.113405794 -0.2623005 0.12095085 0.04552011 -0.17896491 0.36579132 0.030534184 -0.012971041 -0.16503358 -0.1496779 0.0236925 -0.07995678 0.001603174 -0.12031334 -0.17108878 -0.108868614 -0.082482055 -0.004259072 -0.05012085 -0.06515807 0.05337245 -0.15618174 0.024703762 -0.21487042 0.0815898 -0.10745085 -0.18761587 -0.090535976 -0.08379889
http://purl.bioontology.org/ontology/LNC/18267-5 -0.11678529 0.057143603 0.02433829 -0.0019682006 0.22038119 -0.18973547 0.10270248 -0.0077956417 -0.13108897 -0.0063922596 0.083646506 -0.009255487 0.10366732 0.05872941 -0.06855449 0.09679204 -0.08168407 -0.064179346 -0.105820976 -0.02346877 -0.06969463 -0.035518665 -0.097750396 0.20437096 0.1952956 0.022415077 0.0676946 -0.07204753 0.09845783 0.15997486 0.00979044 -0.11463424 -0.087151654 0.100598104 0.17904887 0.030844891 -0.1250678 0.011320118 -0.093863636 -0.0521844 -0.1357223 -0.17983343 0.028642332 -0.007293185 -0.104036696 0.054983336 0.15474783 -0.0047499076 0.22723551 0.082402945 0.041554123 0.09492664 -0.08232998 0.10988541 0.14439875 -0.05357282 0.072305836 -0.0111995 0.069391936 -0.12646751 -0.06330612 -0.045148864 0.014245276 0.07815523 -0.10855734 0.18551466 0.12732269 -0.010580908 -0.1247647 0.28397965 -0.034174375 0.021030005 0.050055783 -0.007724955 -0.2060201 0.3153933 0.014262008 -0.034188144 0.26813063 -0.08073662 0.060955733 -0.11624174 0.1683823 0.15446196 0.11230319 0.068540975 0.07462914 -0.06370693 -0.017247424 -0.079168156 -0.0111528905 0.21160132 0.07576193 -0.020638743 0.021614451 0.014359532 -0.016534168 0.10455464 0.05450304 0.02197605 -0.007768724 0.08431809 -0.093136705 0.047660798 -0.032414082 0.06926701 0.006664245 0.082704775 0.061230768 0.014603025 -0.07544275 -0.0324744 0.09633916 0.1762758 0.06982962 0.067035824 -0.1265836 0.08228347 0.10756149 0.12744607 -0.102252506 0.03716957 -0.03430845 -0.18740213 -0.065916285 -0.15310147 0.005225904 0.21967654 -0.064069144 -0.06514873 -0.08870203 -0.0643801 -0.048012603 0.022380816 -0.14911236 0.16092335 -0.047995117 0.24172959 0.206 -0.13533545 -0.20074111 -0.13494574 0.08884918 0.11894401 0.0940761 -0.062251784 0.105983116 0.09913409 -0.086572975 0.05867585 -0.09746636 -0.06801324 -0.02186974 0.23497392 -0.086594835 -0.088179566 0.050785024 -0.021930637 -0.023327706 0.018399535 -0.26734865 0.15051533 -0.11974601 -0.15069993 -0.027508987 0.114374675 0.17973031 0.056762505 -0.05647036 -0.03398674 -0.10007663 0.12101587 -0.090016045 0.03612724 -0.045045905 0.13763559 0.05999919 -0.05706693 -0.00641736 0.13864157 0.2805588 0.066980496 0.07954791 -0.12532787 -0.067575015 -0.0068083587 -0.03371398 -0.090147406 -0.043911662 -0.06840387 -0.08922708 -0.040663645 0.011531867 -0.058304444 0.0074744397 0.1560566 -0.062238622 0.20862336 0.121167146 -0.09972491 -0.026543418 -0.09500909 -0.034463298 0.055226523 0.106503695 -0.0750548 -0.07162844 -0.055269036 0.29786995 -0.16576841 0.09564806 0.088615045 -0.076705895 0.04163904 -0.1461837 0.031478897 0.10113373 0.047618434 0.11610228 -0.21431561 0.026446346 0.037960943 0.026566196 -0.09464736 0.21007459 0.19193754 -0.07578422 0.12926497 0.022376206 0.20278758 0.034000807 0.0780735 0.06633643 0.15182589 0.26575652 0.20008303 0.0075059356 0.094307594 0.1443319 -0.14952362 -0.094728746 0.22162452 -0.13310368 0.14762756 0.025213411 0.007266726 -0.07624414 -0.07558163 -0.044781722 -0.16665958 0.054603044 0.17461452 -0.079140864 -0.10237677 -0.035960577 0.1756048 -0.1274532 0.0013477999 0.0029148615 0.064760424 0.014874848 -0.015933765 0.15877287 0.004761799 0.19837178 -0.19684651 0.0774035 -0.022464367 0.030599812 -0.1256686 -0.056181148 -0.08941439 -0.21683249 0.058406416 0.039829336 -0.18790695 0.113845035 0.004404999 0.03516474 -0.1547958 -0.030125953 -0.06777899 -0.11480555 -0.022387652 0.027028179 -0.12367197 0.076865196 -0.03757468 0.037645157 -0.16796693 0.040612563 0.12271096 -0.13663223 0.05233106 -0.08580575 0.08108208 0.028213695 -0.15421592 -0.12867701 0.018141069
http://purl.bioontology.org/ontology/LNC/34167-7 -0.07642739 0.04216336 0.020028006 -0.011317105 0.14547713 -0.20045082 0.11541497 -0.00026663212 -0.14828785 0.05572032 0.12553184 -0.016771957 0.12892935 0.11799381 -0.06244256 0.074897036 -0.05933924 -0.06070989 -0.102880016 7.624115e-05 -0.025876906 -0.033963114 -0.0034713303 0.13869905 0.18888235 0.042308215 0.09013809 -0.0863765 0.11441289 0.15136056 -0.018232914 -0.20216879 -0.13563745 0.112533145 0.14050291 0.007004142 -0.1525306 0.033325594 -0.058245286 0.011196875 -0.17735274 -0.18044478 0.04679894 0.017550224 -0.1099774 0.11896162 0.16417897 0.058932576 0.17723791 0.093391515 0.08409705 0.0684531 -0.034558583 0.15117516 0.16592291 -0.02123933 0.09299956 -0.01129985 0.06237308 -0.11749177 -0.11605954 -0.017202463 0.02620371 0.103334196 -0.07351952 0.17174844 0.1776427 0.023394708 -0.13036445 0.20607041 -0.006721911 0.04063255 -0.07017896 0.0020851411 -0.2698282 0.25485727 0.038094442 -0.034714255 0.2741269 -0.026509224 0.044142347 -0.060820688 0.17904969 0.13854392 0.13952605 0.022794196 0.030000947 0.04192785 -0.12856129 -0.017419742 -0.0069621094 0.20322077 0.1830562 0.077845454 0.020992484 0.06384375 -0.03542025 0.084315404 0.041896548 0.00076391856 -0.05793845 0.030280774 -0.22329974 0.07828256 -0.06090793 0.11192809 -0.10241931 0.18403687 0.024837056 -0.08436693 -0.08404613 -0.022323098 0.10409439 0.2517393 0.08551088 0.086985104 -0.165241 0.11168482 0.07135932 0.14863408 -0.13403367 0.011904607 0.035277843 -0.19064005 -0.049677905 -0.10623969 0.0020012117 0.2338504 -0.069303386 -0.118108556 -0.1367471 -0.123209976 -0.16846351 0.0261282 -0.24577375 0.12100582 -0.17682889 0.16673565 0.24152955 -0.0382995 -0.1672327 -0.20619524 0.12998627 0.060346417 0.15196007 -0.08030364 0.09289374 0.13115302 0.011403926 0.08310466 -0.13095966 -0.029994294 0.021205755 0.13248107 -0.12754416 -0.19885589 0.019436883 -0.016130602 -0.05031705 0.07119423 -0.21057889 0.19160184 -0.20560321 -0.17903772 0.08057669 0.16486222 0.18305592 0.04014999 -0.056598593 0.008055556 -0.13267966 0.0795759 -0.08389282 0.018789528 -0.05317231 0.2526859 0.10126063 -0.05951183 -0.021119907 0.06013764 0.2937536 0.09973085 0.030833153 -0.14658003 -0.021339443 -0.03135047 -0.06182817 -0.06519248 -0.08710536 -0.051932544 -0.1303283 0.0035574455 0.09084035 0.027986975 -0.005674314 0.18214686 -0.07646397 0.18283868 0.10593436 -0.04179368 -0.008188867 -0.11649722 -0.031994022 0.03654852 0.15661632 -0.07260942 -0.10844738 -0.011662647 0.24156332 -0.21080065 0.09695944 0.15496935 -0.11744865 -0.05634068 -0.10585722 0.0712537 0.10555895 0.07096348 0.08943598 -0.28137118 0.036015674 0.003021795 0.07758805 -0.115278006 0.29858175 0.23696695 -0.05437813 0.10874048 0.04105008 0.1876682 -0.028859084 0.1255018 0.0643732 0.14289056 0.27354094 0.20977546 0.035707075 0.12865321 0.12007818 -0.0857961 -0.06383661 0.33268064 -0.14603004 0.21678685 0.06596899 -0.047446724 0.019760994 -0.071445815 -0.18438537 -0.085568175 0.07366087 0.22565436 -0.06041483 -0.07708032 -0.07499476 0.21822628 -0.09658894 -0.015163673 -0.05353069 -1.9320916e-05 -0.033193856 -0.046472423 0.1209249 0.019321462 0.20512244 -0.25150087 0.04884585 0.04088408 0.030546617 -0.13251379 -0.006033579 -0.098780155 -0.21985355 0.10622366 0.010339307 -0.14626144 0.15104891 0.07172838 0.04009157 -0.21295749 -0.09134578 -0.06684489 -0.06893229 -0.009033169 0.02750494 -0.06976395 0.13440217 -0.074174196 0.047446188 -0.25272897 0.110306546 0.14606786 -0.19267672 0.08884895 -0.045215096 0.07924786 0.016790207 -0.2255851 -0.19551201 -0.0008815847
http://purl.bioontology.org/ontology/LNC/35640-2 -0.15691522 0.06788748 0.013741665 0.0057962835 0.24822143 -0.18041256 0.06931881 0.034515165 -0.1423618 -0.013356703 0.0796652 0.026017277 0.05382311 0.025022598 -0.072130345 0.12786265 -0.07848733 -0.07399719 -0.12602709 -0.033760913 -0.106649786 -0.046090838 -0.15786001 0.24111749 0.19943775 0.035984095 0.059277046 -0.11043193 0.109518014 0.18294829 0.010259311 -0.0830037 -0.073722824 0.102841645 0.21157572 0.03878896 -0.10829439 -0.030278584 -0.09024964 -0.04468179 -0.16796112 -0.1926384 0.012925276 -0.054653846 -0.1024157 0.030818561 0.16651493 -0.028668875 0.29864976 0.09594602 0.017435146 0.12224462 -0.09883136 0.06835429 0.15081294 -0.108387455 0.05885554 -0.023406671 0.07191478 -0.160544 -0.04874041 -0.04463227 -0.019593079 0.05764126 -0.135379 0.19644633 0.11738044 -0.0010051529 -0.13779505 0.31059924 -0.05826065 0.027765244 0.07947094 -0.015049388 -0.18126465 0.33608836 -0.0032401457 -0.02047715 0.2860763 -0.13797796 0.0819044 -0.14364675 0.18004012 0.17162704 0.069191754 0.07628283 0.11450549 -0.11090792 -0.015033767 -0.092805356 -0.033461615 0.24410386 0.04900137 -0.0577068 0.023747537 -0.00049512985 -0.03040917 0.10648086 0.028730694 0.032724306 -0.0098165395 0.08173333 -0.059345976 0.052543476 -0.046394367 0.07222949 0.07571232 0.058633618 0.088636324 0.04920305 -0.10054723 -0.026785329 0.07683796 0.13532847 0.05060972 0.05445655 -0.11449955 0.07696734 0.1401094 0.11215971 -0.11185213 0.04298515 -0.04972891 -0.17525965 -0.0981044 -0.17868428 -0.003394524 0.24723797 -0.09552364 -0.050686173 -0.06825696 -0.060478717 -0.0050283545 0.043883715 -0.08591733 0.2093599 -0.010381788 0.2844638 0.24318095 -0.17626652 -0.23742235 -0.115691945 0.06349184 0.130698 0.09040545 -0.08482441 0.13545097 0.09991523 -0.13778222 0.07682593 -0.10836578 -0.064455 -0.03516754 0.22289646 -0.08175343 -0.049823962 0.032640286 -0.04273397 -0.013773583 -0.025522169 -0.305377 0.15507476 -0.09324772 -0.14125775 -0.06422345 0.08589351 0.18715557 0.06051162 -0.04734258 -0.03802323 -0.07690321 0.15487723 -0.06454594 0.032482047 -0.061489128 0.0846763 0.040207587 -0.06754654 -0.009422544 0.14889976 0.31526223 0.04977648 0.105661474 -0.122817546 -0.09977283 0.0119336955 -0.0055181882 -0.119457275 -0.03954122 -0.10447683 -0.10514006 -0.09545604 -0.019099265 -0.13081689 0.013986752 0.17061101 -0.07555942 0.24406049 0.11657176 -0.109518796 -0.034577847 -0.11035375 -0.07529437 0.07300622 0.07022293 -0.05584652 -0.07164392 -0.06966516 0.36315888 -0.1559527 0.053424604 0.083079986 -0.08318822 0.09539053 -0.19892529 0.006847061 0.12968004 0.047771044 0.15219331 -0.22087523 0.006958792 0.034128826 0.022290116 -0.07946939 0.20019825 0.17819236 -0.07982885 0.13884671 0.007656174 0.23778725 0.03562408 0.06885644 0.048005745 0.14222659 0.28988263 0.20646413 0.0105736805 0.12593393 0.18830441 -0.16657591 -0.11359847 0.20738353 -0.13381796 0.1329505 0.019091971 0.038316317 -0.11182022 -0.07029242 -0.011022204 -0.20844562 0.06010575 0.17749158 -0.080043495 -0.11978366 -0.022138653 0.20151249 -0.16031806 -0.03130607 0.045158707 0.09824242 0.016642382 0.0059576146 0.15356034 -0.0004487548 0.23447517 -0.17235763 0.0983225 -0.033776093 0.04673948 -0.13261782 -0.09898592 -0.11230328 -0.21328686 0.048068095 0.03470858 -0.21052748 0.0936036 -0.03058485 0.053868536 -0.13472746 0.0063625984 -0.09619456 -0.12992649 -0.053034402 0.01524127 -0.13828549 0.08019141 -0.039444707 0.036235176 -0.16725174 0.017270187 0.1475291 -0.10826037 0.058930814 -0.12219083 0.12549324 0.051399022 -0.15539072 -0.13385965 0.027512489
http://purl.bioontology.org/ontology/LNC/51237-6 -0.14144008 0.0751992 -0.003663041 0.004963231 0.22561246 -0.21145363 0.073791526 -6.733993e-05 -0.1326257 -0.0047383746 0.08968321 -0.023959732 0.05104706 0.04492788 -0.05040591 0.091416776 -0.11471236 -0.06295397 -0.14066805 -0.021531418 -0.07556217 -0.0504288 -0.113542385 0.18074208 0.16401574 0.02530547 0.09498973 -0.08846653 0.08847801 0.16546541 -0.018465057 -0.08511317 -0.06969917 0.12183939 0.17310868 0.0010135438 -0.14155033 0.008823711 -0.107310526 -0.029393025 -0.1672864 -0.19509932 0.01514145 -0.052004244 -0.14082831 0.0388981 0.1627045 -0.039445333 0.2473296 0.08996647 0.02339677 0.124777906 -0.059039965 0.055304166 0.16474771 -0.09701372 0.06669264 -0.022291789 0.0913955 -0.15439686 -0.037135735 -0.02323401 0.042270638 0.09495301 -0.11467592 0.18216202 0.14782286 -0.011830672 -0.13212706 0.2857757 -0.033244863 0.053022906 0.06190055 -0.034962106 -0.19667585 0.331569 0.011755294 0.011458541 0.2795835 -0.123772636 0.05960133 -0.1277633 0.15556015 0.17517444 0.079586975 0.07732855 0.073174536 -0.10232915 -0.049861584 -0.09442701 -0.037754092 0.21438543 0.07915429 -0.0009794475 0.013807123 0.04492644 -0.024352452 0.103897266 0.06274456 0.040689282 -0.008183345 0.10529061 -0.0955893 0.07332969 -0.042795654 0.088475764 0.032718644 0.050957642 0.059165385 0.019189581 -0.11787584 -0.047008906 0.07185177 0.15051882 0.057365447 0.046645425 -0.13563557 0.05868679 0.10454505 0.14369002 -0.1323618 0.022778228 -0.06293181 -0.19785658 -0.072565265 -0.16213869 -0.012758428 0.2491439 -0.09166145 -0.06447665 -0.06485737 -0.05498688 -0.049133368 0.076551594 -0.12035859 0.14591861 -0.05709685 0.25639296 0.23633415 -0.12678617 -0.21666352 -0.12720653 0.05110822 0.15402423 0.11470855 -0.041729104 0.11492308 0.10728979 -0.09121698 0.09098951 -0.066775724 -0.053147696 0.00458713 0.18558435 -0.07289092 -0.095465004 0.023616066 -0.035249192 -0.02489027 0.013526015 -0.27325907 0.18345094 -0.13029526 -0.1342766 -0.015633209 0.13735956 0.19502419 0.040182665 -0.02317082 -0.0071400283 -0.075121306 0.13167208 -0.094829455 -0.0015869194 -0.06935167 0.1252263 0.065013446 -0.05022186 -0.00024012504 0.13834386 0.28987384 0.050414283 0.117185555 -0.12257982 -0.11720017 -0.00095405546 -0.0087304795 -0.0987257 -0.0271158 -0.11225484 -0.09419837 -0.064262584 -0.022107579 -0.08731689 0.006912778 0.15210551 -0.06755348 0.23746093 0.12277977 -0.12489737 -0.037877936 -0.13601738 -0.052319188 0.05689434 0.101914 -0.040249832 -0.07937851 -0.043830905 0.33030525 -0.18473236 0.0713814 0.12134228 -0.07751187 0.07430135 -0.15155199 0.02007429 0.09420344 0.07866832 0.111705065 -0.2443873 0.015671764 0.015998838 0.038857304 -0.06447512 0.21260653 0.17437035 -0.0396019 0.12630358 0.016192487 0.24846463 0.0119159175 0.111120485 0.06843572 0.16402662 0.28024253 0.24414948 -0.00050858135 0.09782137 0.16396205 -0.17530781 -0.091952756 0.21728177 -0.1498444 0.1585722 0.041477237 -0.015433474 -0.055958327 -0.06540325 -0.043626267 -0.19814596 0.047487147 0.19740473 -0.08451313 -0.11244721 -0.0031124332 0.25013486 -0.13607337 -0.065098256 0.027576176 0.07824989 -0.002050928 -0.010239783 0.1566175 -0.0024433543 0.22994776 -0.18209931 0.08955967 -0.025161428 0.0077881957 -0.116147205 -0.12172931 -0.109359264 -0.2190478 0.059004787 0.049866013 -0.23319821 0.14673088 0.0030919535 0.014007579 -0.15576278 -0.072351985 -0.071805716 -0.11725201 -0.006608502 -0.016090062 -0.13632642 0.061675645 -0.038326126 0.028637238 -0.16414647 0.032785743 0.08422102 -0.14283994 0.042203564 -0.10090699 0.10647585 0.028889574 -0.19681208 -0.13992852 -0.025850905
http://purl.bioontology.org/ontology/LNC/12242-4 -0.10119593 0.13924585 -0.061023157 -0.037228636 0.20136537 -0.17001979 0.0417176 -0.060317393 -0.15241052 0.05067451 0.21342511 -0.021769132 -0.066365115 -0.0041693617 -0.08287727 0.08082634 -0.233891 -0.02659859 -0.16442798 0.0009933504 -0.048017487 -0.16525102 -0.07410138 0.060330547 0.20279104 -0.05413891 0.11539608 0.066105716 0.09638173 0.18718858 -0.0055558058 -0.051768333 -0.0480096 0.09346966 0.25849706 0.024062067 -0.1819965 0.15265703 -0.122535504 -0.014279766 -0.2702969 -0.20167083 0.05330796 -0.08296111 -0.17667894 0.113828644 0.17566004 -0.10632296 0.19098361 0.09577547 0.102072135 0.19933827 0.023610482 -0.011786314 0.28066918 -0.1521602 0.07395466 -0.0069666826 0.1239489 -0.22774689 -0.0041400245 -0.032406423 0.073395245 0.070225455 -0.1265932 0.09476594 0.07810799 -0.02409985 -0.071078934 0.24452963 -0.053533074 0.078867756 0.029853614 -0.08926192 -0.224748 0.42097852 0.08438261 0.021371096 0.22172327 -0.14235425 -0.019234035 -0.14857028 0.038731605 0.1725895 0.013090627 0.13271084 -0.014448597 -0.07611592 -0.0065559964 -0.105490975 0.007956137 0.24690747 0.0762561 -0.01971272 -0.04201179 0.14778206 -0.0402986 0.054010827 0.18531336 0.08818506 -0.043006536 0.12272701 -0.11243357 0.10768001 -0.21201709 -8.3985535e-05 0.013129161 0.03751876 0.06535869 0.057953324 -0.13173181 -0.16430876 0.11574845 0.09543743 0.062888935 -0.076981924 -0.17051908 0.0824921 0.06234746 0.16089936 -0.19154148 -0.01401312 -0.103701375 -0.24054798 -0.07441998 -0.12294652 -0.06010759 0.28986847 -0.08296994 -0.16098458 -0.05467774 0.009467913 -0.07457192 0.012260965 -0.12772661 0.10502055 -0.019865824 0.21432216 0.26601857 -0.11125648 -0.12763888 -0.115365565 0.02277402 0.16387576 0.1545696 -0.027386475 0.089083 0.13432752 -0.009096739 0.032927405 -0.003852831 0.06656656 0.029476466 0.1335669 -0.074696615 -0.1655125 -0.005085768 -0.0063749654 0.0100899935 0.08179437 -0.2568273 0.15818767 -0.16058998 -0.1592329 0.062023785 0.03399678 0.21337917 0.027316803 0.077595 0.053872943 -0.012135492 0.060046516 -0.0635527 -0.011976223 -0.08496356 0.19242054 0.013358364 -0.05118916 -0.063482784 0.16105384 0.25897506 0.0114655625 0.08364765 -0.12609418 -0.16771504 -0.011455464 0.047517475 -0.024227954 0.03993529 -0.1199296 0.06316108 -0.04124373 -0.038372632 -0.043581083 -0.06400636 0.22395615 -0.021196706 0.2127403 0.1210854 -0.24965653 -0.070784986 -0.1686394 -0.014649919 -0.018330963 0.09643185 -0.047805607 -0.096178256 -0.021003505 0.37236974 -0.20854592 0.020328423 0.2058019 -0.07899552 -0.038905222 -0.21306176 0.011523378 0.07441517 0.16346861 0.11489779 -0.31598082 -0.050173722 0.07466375 0.06684787 -0.08162358 0.2281121 0.07135017 -0.002106612 0.07273752 0.072834425 0.2494043 -0.009785675 0.07254197 0.0838385 0.20617333 0.1681647 0.31249145 -0.024120921 0.10387069 0.11509231 -0.21709324 -0.11370522 0.18162538 -0.11367287 0.15765706 0.107280344 -0.23997363 -0.10810876 -0.1349684 -0.09979677 -0.15415426 -0.019236185 0.2677432 -0.1388082 -0.052474383 0.056200594 0.3794699 -0.13817105 -0.20529252 0.011704052 0.17337422 -0.0050583826 0.033948142 0.17695978 0.11757606 0.2581081 -0.14851403 0.12208823 -0.05163479 -0.07153416 -0.078214556 -0.18264014 -0.14377734 -0.21719313 0.11680643 0.03720299 -0.26374167 0.28828982 0.07037777 0.0007093638 -0.12143346 -0.10180411 -0.062237862 -0.09909591 0.06964217 -0.09636197 -0.13681552 -0.072985396 -0.03447701 -0.004420165 -0.08256238 -0.028857708 0.038446408 -0.13410673 0.044974998 -0.15434912 0.047770828 -0.09618375 -0.185638 -0.10505323 -0.12302866
http://purl.bioontology.org/ontology/LNC/7790-9 -0.11207191 0.03566158 0.028999837 -0.023513323 0.20056947 -0.14727102 0.075931735 0.0012048895 -0.13210794 0.016386112 0.08210162 0.012657587 0.09230732 0.08112696 -0.06867194 0.098629564 -0.08040313 -0.06056856 -0.09244253 -0.018062329 -0.055165928 -0.051183384 -0.09231287 0.18613005 0.19518737 0.025111541 0.059625767 -0.08859496 0.10750741 0.14349112 0.013896155 -0.14023478 -0.08692781 0.10372622 0.17315558 -0.0023637735 -0.1168431 0.005952436 -0.070586376 -0.037711363 -0.14829248 -0.17717576 0.047282346 -0.009892492 -0.10900957 0.06796976 0.16549397 0.009402803 0.2265052 0.10810379 0.036991905 0.09298597 -0.08749227 0.10096596 0.14927424 -0.061070736 0.070655026 -0.008655132 0.06028888 -0.14518194 -0.083490066 -0.026496055 0.005040837 0.05974267 -0.118119195 0.16414444 0.10197108 -0.006543151 -0.13789088 0.24014255 -0.045115057 0.015706211 0.0025829782 0.021748679 -0.21950895 0.30249205 0.03091015 -0.04068235 0.26952735 -0.0991851 0.07262801 -0.08913637 0.19287631 0.15045471 0.11880009 0.051305708 0.077841535 -0.05511152 -0.046099793 -0.057755794 -0.037992626 0.19872485 0.08637022 -0.00865331 0.029651256 0.0053205043 -0.013575785 0.09737571 0.022869905 0.016967954 -0.011840272 0.052647945 -0.11766513 0.05506937 -0.03521874 0.08947571 -0.007562952 0.11738501 0.048965763 0.0025322586 -0.09803067 -0.03844109 0.093291655 0.17693529 0.06036355 0.09682689 -0.11144317 0.0886625 0.10584245 0.12530565 -0.10705559 0.029659636 -0.02167779 -0.17607245 -0.0614758 -0.121891275 -0.006882488 0.2333582 -0.06371537 -0.08672624 -0.08121624 -0.10012338 -0.075725295 0.03734781 -0.17139284 0.1600697 -0.062587686 0.2245064 0.22126317 -0.113276444 -0.20859183 -0.1273333 0.088032246 0.12115153 0.08878862 -0.08407778 0.11067867 0.09312536 -0.071901 0.071618095 -0.11704228 -0.059203103 -0.023540158 0.20947143 -0.08364142 -0.106005386 0.05066216 -0.025760904 -0.0306904 0.031709075 -0.2667539 0.14639744 -0.12578928 -0.15907156 -0.016533948 0.118678264 0.18432976 0.07356998 -0.06990339 -0.012594445 -0.100745805 0.114505105 -0.053096313 0.058953397 -0.053254835 0.13933842 0.064705 -0.063383244 -0.033220902 0.1042805 0.28382015 0.073653646 0.067942634 -0.099621445 -0.055942614 0.0012549231 -0.026898757 -0.09493721 -0.049089175 -0.091936685 -0.10420118 -0.06163173 0.017266396 -0.0663737 -0.0030922487 0.16663937 -0.065006584 0.21157992 0.11585414 -0.0737883 -0.01999237 -0.10255241 -0.049261604 0.057397213 0.096878886 -0.07096155 -0.108190015 -0.042915605 0.29710707 -0.16069661 0.097582586 0.09312371 -0.076067455 0.031994533 -0.14793167 0.048263136 0.112284884 0.05357097 0.11648615 -0.2329017 0.027719814 0.028822655 0.031499006 -0.07010344 0.22196744 0.19693413 -0.07396009 0.12672405 0.019366687 0.20082875 0.0022797901 0.08593742 0.059115313 0.13898878 0.27118522 0.18472551 -0.0012623572 0.11123226 0.1500262 -0.13539636 -0.107498154 0.26302746 -0.1372535 0.16137919 0.01510792 0.0045821876 -0.0621624 -0.08437181 -0.06937433 -0.16531341 0.053677477 0.19262452 -0.070359744 -0.09633062 -0.055985086 0.19961374 -0.1357495 -0.00734095 -0.00043038905 0.051558845 0.018311445 0.014191866 0.14347175 0.020952588 0.20192954 -0.1954497 0.061851937 -0.008339747 0.025000397 -0.12682268 -0.034699846 -0.093463235 -0.22010443 0.091429904 0.015908277 -0.18195978 0.13998744 0.0022800383 0.03925616 -0.14608648 -0.031967364 -0.080153264 -0.08457564 -0.032137346 0.022640597 -0.12863378 0.09985005 -0.04379574 0.03179292 -0.19537544 0.046511244 0.1516455 -0.1334282 0.060125288 -0.09794041 0.08505543 0.017471261 -0.17679279 -0.15064794 0.00053488713
http://purl.bioontology.org/ontology/LNC/26488-7 -0.10216539 0.03127126 0.009857514 -0.041952994 0.23655838 -0.17641352 0.08409218 0.0084414305 -0.167502 -0.03739412 0.07432207 -0.002406887 0.14705539 0.089984104 -0.10975081 0.0910143 -0.11101834 -0.03106069 -0.10185642 -0.014098533 -0.101821646 -0.046507943 -0.09147475 0.21354668 0.24033956 0.03890145 0.11205091 -0.098908275 0.13547985 0.16328683 0.025692422 -0.17803612 -0.089568526 0.10982357 0.17300065 0.020422585 -0.13835604 -0.00361367 -0.081329875 -0.064868025 -0.16554104 -0.21578507 0.031193933 -0.0055479314 -0.10996531 0.057292752 0.160167 -0.005677027 0.24920994 0.090697095 0.045965664 0.10447367 -0.10909476 0.14912432 0.16596754 -0.04436296 0.0746096 -0.0058127022 0.09133468 -0.13326065 -0.08174217 -0.04657664 0.0070568738 0.071313694 -0.11585106 0.23881897 0.15474996 0.0047922297 -0.15449998 0.3247249 -0.031422783 -0.0027609102 0.013446375 0.01614708 -0.27432513 0.33306813 0.03720845 -0.07508029 0.30497232 -0.08186757 0.06970873 -0.10334246 0.20637782 0.15825357 0.12595949 0.04368217 0.09993336 -0.044843737 -0.02696427 -0.099631965 -0.028570864 0.20934571 0.10899406 -0.016758228 0.041830022 -0.006159445 -0.016741155 0.09762868 0.036072534 -0.0031822082 0.0043528946 0.06738863 -0.15145947 0.07606181 -0.03422344 0.07759172 -0.010725263 0.1036017 0.07418305 0.02424828 -0.09132265 -0.020447195 0.13822106 0.21962987 0.058665052 0.09344001 -0.15290901 0.115064524 0.10804632 0.09942883 -0.11048948 0.045137715 -0.020700442 -0.20598504 -0.06926119 -0.19480324 -0.0073017157 0.22827798 -0.057261165 -0.103308566 -0.11598182 -0.086974755 -0.05492881 0.029604575 -0.1944052 0.20229623 -0.062300663 0.30376983 0.21077795 -0.15490349 -0.24645436 -0.15274332 0.09631225 0.121038266 0.100516275 -0.110156745 0.11235441 0.108258516 -0.0885335 0.095626466 -0.13170955 -0.091214515 -0.04375466 0.2637543 -0.13132975 -0.1273289 0.06539451 -0.0016840509 -0.04418402 0.029814843 -0.3044174 0.1530158 -0.13571085 -0.2026016 -0.028449865 0.15824494 0.19753851 0.09361268 -0.082138844 -0.055399995 -0.10707663 0.14935161 -0.08639805 0.044748895 -0.054167584 0.1724743 0.08248102 -0.045201395 0.00559067 0.14351507 0.3733895 0.057645537 0.06668018 -0.14229019 -0.06150375 -0.0015634204 -0.052762836 -0.10286619 -0.06034554 -0.11405423 -0.13017742 -0.019407723 0.02141744 -0.05095237 -0.00054577796 0.18500122 -0.11674475 0.25976261 0.13224474 -0.10288136 -0.023298573 -0.10059233 -0.03207144 0.074152455 0.1068542 -0.12003996 -0.0972932 -0.041423522 0.32795602 -0.1721695 0.14413224 0.1038146 -0.09245625 0.027484758 -0.18692064 0.06319276 0.122001074 0.06992354 0.16945283 -0.22597712 0.07385917 0.05788043 0.016151855 -0.13521071 0.2461373 0.23903619 -0.13124752 0.13567276 0.03228372 0.22257793 0.03565694 0.06360368 0.067994684 0.14021958 0.29841873 0.20531619 0.03096586 0.1328756 0.16578175 -0.13760355 -0.09117605 0.28734514 -0.14804934 0.1671031 0.01072164 0.045532215 -0.08911087 -0.08976406 -0.08360539 -0.2038939 0.06546004 0.21374227 -0.100195356 -0.12452612 -0.048292622 0.17676009 -0.15320553 0.033616997 -0.015729906 0.022385152 0.014189758 -0.01567493 0.1556102 0.0029263545 0.21413973 -0.24946415 0.07490023 0.0173319 0.062208492 -0.13817464 -0.047389023 -0.09849429 -0.26807573 0.09215442 0.05425206 -0.1998111 0.12975651 -0.022848843 0.089531764 -0.17687385 -0.012892661 -0.07967476 -0.1121117 -0.051139038 0.026830772 -0.120814756 0.12497548 -0.029961223 0.026299983 -0.1922459 0.06587535 0.16427071 -0.1300055 0.07395103 -0.08311457 0.08985317 0.08766039 -0.16923219 -0.17338781 0.051681306
http://purl.bioontology.org/ontology/LNC/48040-0 -0.045418065 0.034586504 0.0038093626 -0.05505822 0.1828204 -0.15601173 0.11559996 -0.03950167 -0.133653 -0.0073632174 0.057922415 -0.009516111 0.17315513 0.1313833 -0.07001403 0.082822666 -0.10150534 -0.035394702 -0.07155096 -0.0037451475 -0.043769915 -0.057359863 -0.011690491 0.16223295 0.20462416 0.033074502 0.10023406 -0.07389477 0.10795163 0.1521298 0.022282118 -0.20372576 -0.11190065 0.12255819 0.113449685 -0.0061449655 -0.13371159 0.07462074 -0.08921886 -0.02679413 -0.12441131 -0.17707622 0.07360508 0.025959704 -0.09877484 0.08672437 0.13602553 0.054740064 0.13150899 0.08804582 0.048168793 0.0909486 -0.081825785 0.14118811 0.13283947 -0.01020901 0.08674984 -0.00029418105 0.04570414 -0.13566336 -0.097236045 -0.02702765 0.063826226 0.07843934 -0.07273889 0.18593939 0.16721539 -0.034863822 -0.11330155 0.23685949 0.009951338 0.03886639 -0.043637715 0.046594284 -0.24533139 0.29842088 0.061921466 -0.04956356 0.2448386 -0.03389105 0.017790027 -0.07593607 0.18208954 0.13009569 0.15135238 0.055161607 0.036288925 -0.01167678 -0.06441778 -0.0492165 -0.026200872 0.18042028 0.13670795 0.00548965 0.029073358 0.02570017 -0.020740071 0.074397735 0.040592767 -0.042054214 -0.002449325 0.05124752 -0.16606142 0.054403316 -0.041764516 0.062113065 -0.050010476 0.11221579 0.031178007 -0.005414552 -0.099865094 -0.032784 0.1517293 0.2367763 0.061885163 0.10707167 -0.13129874 0.11632267 0.08947135 0.09964815 -0.10285977 0.040167544 -0.008604236 -0.17744526 -0.043524522 -0.17434315 0.0040970217 0.21029812 -0.0235736 -0.13072982 -0.11962388 -0.11977977 -0.09874698 0.048886385 -0.2235883 0.14043877 -0.08805919 0.16953503 0.172775 -0.082507916 -0.18820322 -0.15341543 0.13302445 0.09415474 0.10385755 -0.07268783 0.08411768 0.09664108 -0.035873152 0.06561207 -0.09518685 -0.064191505 -0.010621773 0.22880673 -0.08262807 -0.18619797 0.047801465 0.02904944 -0.04814959 0.08269512 -0.26140547 0.15006004 -0.20436564 -0.17715353 0.035748255 0.143611 0.169672 0.066050954 -0.061005794 -0.042356446 -0.13251424 0.111297384 -0.10090097 0.05259127 -0.052647356 0.2151955 0.078475244 -0.06367324 -0.035210405 0.13033573 0.3011903 0.08587101 0.040335502 -0.11341049 -0.021866247 -0.040168777 -0.068335555 -0.074643515 -0.04639461 -0.06416383 -0.087459356 -0.0030086334 0.044287372 0.012057929 -0.0018231318 0.15197651 -0.06077164 0.1843325 0.12467939 -0.08676222 -0.012621724 -0.10759343 -0.0040866407 0.042667393 0.14537868 -0.09732178 -0.11843009 -0.033971675 0.24036294 -0.15904586 0.14625181 0.11603113 -0.08767163 -0.05021254 -0.10740116 0.079307884 0.10390884 0.09384179 0.11082321 -0.24085478 0.058700636 0.04696295 0.045248453 -0.12629643 0.23717166 0.2466221 -0.047061898 0.10675903 0.031991318 0.17102626 0.011221476 0.10767943 0.08968228 0.14082415 0.27888456 0.20276152 0.008233182 0.11318522 0.11495699 -0.11491431 -0.076570265 0.28741372 -0.14112973 0.17261614 0.022316178 0.0018061512 -0.016551947 -0.06476283 -0.12486643 -0.15120624 0.046620302 0.17957501 -0.06285085 -0.06451977 -0.06440367 0.15113811 -0.12923123 0.021405207 -0.0698615 0.031075533 0.0008271406 0.011283396 0.14184007 0.02217807 0.17602222 -0.21532463 0.05502703 -0.005070356 0.0112019 -0.11203904 -0.01744806 -0.09621105 -0.22225234 0.10269083 0.0352648 -0.17630538 0.17210327 0.02116644 0.044951025 -0.16636993 -0.06135978 -0.06655002 -0.05237367 -0.017898997 0.016181335 -0.1553994 0.124480106 -0.017111484 0.051374663 -0.18476087 0.06865346 0.15082414 -0.1578249 0.055143517 -0.053090133 0.029337948 0.038678963 -0.17954782 -0.16952135 -0.0132727735
http://purl.bioontology.org/ontology/LNC/2842-3 -0.16382428 0.17867775 -0.067632824 0.004312837 0.19832663 -0.27672985 0.10903027 -0.041588563 -0.15318431 0.054715257 0.21133395 -0.024418024 -0.07432639 -0.077182874 -0.018272886 0.06798449 -0.17978984 -0.033838436 -0.18595906 0.0085827345 -0.029452687 -0.1059883 -0.07222707 0.081210285 0.1746558 -0.028159624 0.12153623 0.016106365 0.0621806 0.18470812 -0.054917965 -0.029106943 -0.039634533 0.12454374 0.25185412 0.038734935 -0.21785519 0.1492134 -0.112516224 -0.010522856 -0.23286355 -0.19641851 -0.054368887 -0.049377076 -0.20177932 0.0879103 0.16781673 -0.10285224 0.1988523 0.08741688 0.08054014 0.20351444 0.03400038 -0.0002285294 0.2534704 -0.0869323 0.08879537 -0.025617156 0.09926748 -0.1795008 0.0166362 -0.031333722 0.09426651 0.13962127 -0.14388818 0.0991174 0.14701088 0.019359732 -0.06779515 0.23707594 -0.04367725 0.079265796 0.115840994 -0.13616914 -0.19237311 0.38681686 0.0064152437 0.07836137 0.24749917 -0.09762765 -0.014769995 -0.15272173 0.024491979 0.19184232 0.0046434216 0.093353905 0.06506461 -0.083961554 -0.0032756699 -0.10053666 0.03856581 0.283679 0.12171932 0.04788504 -0.030787468 0.17497846 -0.04600215 0.07124828 0.18395692 0.0994433 -0.026897592 0.15371831 -0.12571791 0.12704015 -0.0912033 0.017227955 0.043689936 0.0024290741 0.089371905 -0.018083928 -0.09966466 -0.12972595 0.048651353 0.07905477 0.09271345 -0.07384954 -0.23367496 0.046797946 0.08172725 0.19883046 -0.17971289 -0.019457981 -0.071346305 -0.25005504 -0.09562052 -0.1369852 -0.010064162 0.2550362 -0.097296484 -0.07006376 -0.031478178 0.06635589 -0.109022744 0.009156202 -0.058095217 0.015358148 -0.066827364 0.25477368 0.23583505 -0.12941791 -0.091344744 -0.1795757 0.010278538 0.15315756 0.15970807 0.019220207 0.12896246 0.16023901 -0.056381088 0.03334995 0.008266226 0.04306835 0.052803475 0.1107304 -0.060785215 -0.13235173 -0.05637525 -0.08987199 0.044927012 0.07313387 -0.22747807 0.15711261 -0.15465407 -0.097116046 0.051257376 0.08132063 0.26291203 -0.047004975 0.12267551 0.0011347447 -0.032499537 0.014540284 -0.109105825 -0.052741632 -0.04032167 0.16428983 0.02116615 -0.032359086 -0.072683014 0.18040776 0.22855768 0.04520068 0.10996595 -0.11314976 -0.15815993 -0.028380388 0.058641948 -0.081558235 0.07380333 -0.12194023 0.052051447 0.029299662 -0.018677507 -0.025755959 -0.0646432 0.2075125 0.009947361 0.21238716 0.14374526 -0.21270551 -0.06873963 -0.1522852 -0.0130163655 -0.01506938 0.12468795 -0.022108601 -0.03913262 -0.0137629695 0.31172878 -0.26186988 -0.04717963 0.20925735 -0.05841252 0.04082246 -0.18883091 0.022639316 0.08250124 0.1733032 0.053831294 -0.28787273 -0.017285308 0.027007828 0.09014493 -0.07211994 0.1942015 0.041477643 -0.03982548 0.059644904 0.056356363 0.25744182 -0.01077798 0.095195554 0.06275429 0.20904358 0.21127376 0.33987844 -0.021918342 0.063558854 0.13457187 -0.24942398 -0.07859477 0.11724298 -0.12479457 0.12373168 0.104421504 -0.21385436 -0.079658374 -0.08995437 -0.03663077 -0.13433826 0.023537995 0.22920246 -0.16628397 -0.041605428 0.07900162 0.39387524 -0.100248694 -0.14616995 -0.0333714 0.16785958 -0.04705235 -0.07930794 0.14951973 0.031415075 0.23413269 -0.19254361 0.11125409 -0.055576593 -0.08695754 -0.09256576 -0.20323421 -0.07328294 -0.22292143 0.02754215 0.07222796 -0.20594612 0.19174175 0.105927125 -0.009168093 -0.14458613 -0.16254486 -0.08483548 -0.13278213 0.09203508 -0.10918161 -0.11700676 -0.044962898 -0.0028541128 0.022527741 -0.0778752 -0.04874453 -0.06079182 -0.10954248 0.025934542 -0.07488374 0.075734966 -0.07547969 -0.18105237 -0.05797629 -0.055632632
http://purl.bioontology.org/ontology/LNC/57424-4 -0.11479455 0.064023405 0.0040040943 -0.036489926 0.25120237 -0.16400163 0.07290921 -0.04660052 -0.1072558 0.017589813 0.078790836 -0.0052145813 0.0774175 0.075692564 -0.040698286 0.089212954 -0.10826852 -0.037122577 -0.118948855 -0.013732597 -0.073876075 -0.07430938 -0.08947001 0.17237553 0.20687824 0.013104304 0.09092476 -0.04464993 0.07450655 0.1506134 0.016398447 -0.09412629 -0.05527684 0.10247561 0.16202624 0.016417664 -0.11981251 0.041532006 -0.11048769 -0.05560209 -0.13989931 -0.1670228 0.05825564 -0.029243704 -0.1309175 0.07927834 0.15990634 -0.005934535 0.20538273 0.07540736 0.04067946 0.10897144 -0.07384465 0.08938381 0.15515131 -0.058817632 0.07038168 0.020651128 0.045021057 -0.16089353 -0.027322145 -0.035975963 0.048751716 0.06810063 -0.115544125 0.15820108 0.106818 -0.027390258 -0.12072722 0.2635804 -0.030167183 0.024603285 0.05388971 0.013387861 -0.21098052 0.34125546 0.028684871 -0.016499696 0.23372284 -0.06877392 0.017591855 -0.10171184 0.14891152 0.14873292 0.08303545 0.08007255 0.050875198 -0.067637235 0.0042256415 -0.08302869 -0.010144633 0.19610655 0.08083515 -0.025521507 -0.003270756 0.043233473 -0.012538264 0.071536094 0.07033613 0.009581649 0.005106045 0.09309471 -0.09716176 0.06699237 -0.045119964 0.05110348 0.031800464 0.036560364 0.047046803 0.061509326 -0.08191823 -0.052155856 0.10683006 0.1530419 0.058660623 0.040972468 -0.11709687 0.10736911 0.100738734 0.095796406 -0.093040034 0.068956256 -0.05604029 -0.18165328 -0.056285176 -0.15392247 0.006652059 0.23479387 -0.06271167 -0.103034735 -0.0909171 -0.04237159 -0.04292981 0.03574413 -0.13292602 0.14550799 -0.029670658 0.21591121 0.20596516 -0.13829336 -0.18830632 -0.13044475 0.068533435 0.14033134 0.08327919 -0.056308072 0.096620366 0.093719415 -0.06592836 0.03412581 -0.073461175 -0.03795276 -0.019101193 0.24133986 -0.069038086 -0.104266144 0.046072986 -0.014399966 -0.014763281 0.039600234 -0.26349849 0.1510444 -0.13674413 -0.16999112 -0.023174854 0.082410865 0.18052745 0.040393982 -0.026273662 -0.049048446 -0.076407135 0.11629773 -0.09917319 0.05539204 -0.05250174 0.1290803 0.025429979 -0.069118895 -0.020022443 0.15152393 0.29344657 0.038736757 0.076642476 -0.10024182 -0.07923509 -0.0053607402 -0.010463232 -0.10272077 0.015425808 -0.08604061 -0.036618385 -0.041061856 -0.01854974 -0.062475007 0.011193212 0.14590138 -0.031157333 0.2032259 0.13141169 -0.11902948 -0.031084929 -0.090797015 -0.01726767 0.039879423 0.12024109 -0.07712867 -0.082043394 -0.034604445 0.29274324 -0.17455746 0.08387003 0.10711951 -0.06425747 0.050811812 -0.13782729 0.048047453 0.11941183 0.07781312 0.11532301 -0.22275075 0.041822128 0.0634635 0.03431113 -0.10306714 0.18878147 0.17323603 -0.049498323 0.11603519 0.04263219 0.22469237 0.031884145 0.0748528 0.08985452 0.14629138 0.23493698 0.20735154 -0.020811057 0.07516336 0.124182545 -0.16366726 -0.109553635 0.1909321 -0.11848398 0.14598233 0.028336756 -0.018554423 -0.07476384 -0.07911201 -0.058926333 -0.16865543 0.010604544 0.18274328 -0.07490914 -0.077546656 -0.008463552 0.19715632 -0.1345261 -0.0019110373 0.004281067 0.08111285 0.005063129 0.011086275 0.16363055 0.030916307 0.18500027 -0.19014096 0.09150708 -0.05087309 -2.297026e-05 -0.09941158 -0.085372105 -0.07166266 -0.21398403 0.057951827 0.051110975 -0.22525437 0.16584125 0.008260848 0.015631385 -0.14053656 -0.039594088 -0.075487316 -0.101518266 -0.012600208 -0.0040886 -0.12931491 0.041857824 -0.0020247886 0.026846102 -0.12588741 0.016455054 0.0899676 -0.120708525 0.03968498 -0.07409247 0.041140042 0.02947865 -0.16964117 -0.120716065 -0.026523681
http://purl.bioontology.org/ontology/LNC/19994-3 -0.0013149877 -0.0010905284 -0.0012252689 -0.0012437565 -0.00039391906 -0.00039628285 0.0015655465 -0.00042372508 -0.00060428836 -0.0008506281 -0.0004917506 -0.000165853 0.00036755492 -0.00018062009 -0.0014876019 0.00075148564 0.00018660384 0.00107933 0.0014015664 -0.0014955231 0.0009617072 0.0009750083 0.0012105741 -0.0015986233 -7.167434e-05 0.00020547245 -0.00016510855 -0.00047565723 0.0012214073 0.0015091511 -0.0003995648 -0.00019408923 -0.0011379306 -0.00042891133 -0.0006212089 -0.0011705897 0.00092290546 -0.00036960343 -0.0005024316 -0.00037913004 0.001129346 5.1483985e-05 -0.0015263611 -0.0012342982 0.0001940067 -1.2612275e-05 -0.00031394826 0.0009130895 0.0013357463 -3.4871366e-05 -0.00024884514 -0.0006514478 -0.0012939723 -0.00030323974 0.0010627043 -0.0007341851 -9.727106e-05 -0.0012416573 0.0006768358 -0.0004989199 0.0012294638 -0.0011214635 -0.0003301135 0.0013949005 -0.0003086681 0.0013465418 -0.0016367228 0.0009579901 0.00060595234 -0.0014638269 0.00033781937 -0.0015666137 0.001104991 0.0013845052 0.0014019242 0.0014898868 -0.00019827292 0.0012086941 -0.00044341764 -0.00016684832 0.0002324609 0.0015298835 -0.001591594 0.0003991355 -0.0015127583 -0.0013391293 -0.00029148176 0.0013525509 -0.00077581976 -0.0011034772 0.0011792888 0.00044271804 -0.00063602463 0.00056421594 -0.0007907488 0.00060526235 0.0007603617 0.00023977396 0.0013982363 0.00046187776 -0.00029320756 -0.001561931 -0.0010679854 0.00037391213 -0.000584304 -0.0013881407 -0.0007181619 0.0011067006 0.00151755 -0.0016439005 -0.0012191907 -0.0012827677 -0.00087825785 -0.0012403129 0.001266482 -0.001003053 -0.00089750235 0.00036970087 -0.0014901225 0.0007611071 -0.0010273622 0.0014234142 0.0009756451 0.0001560963 0.00013686084 -0.00040178926 -0.0007163271 0.0007565967 0.0016233405 -7.5606855e-05 -0.0009173162 -6.615287e-05 0.001578085 -0.00091224734 0.0009817531 0.0008867405 -0.0009949825 0.0007647393 4.1400657e-05 -0.0005544226 -0.00014513404 -0.0008165671 -0.0010794337 -2.3086342e-05 0.0009920958 -0.0011728308 -0.0016152171 0.0012508787 -0.0015692487 -0.00044201987 0.00061255647 -0.0013580351 0.0011900835 -0.00080198917 0.001021424 -0.0011873854 -0.0009500988 0.0014825241 -0.0012390721 -0.0004267879 0.00056177494 0.0015164741 0.0007134158 -0.000979505 0.0011665643 -0.0008629177 0.00042212833 0.0010569912 -0.0009591655 0.00020345146 -0.0007353519 0.00017181176 -0.0002371756 -0.0005460353 0.00017537657 -0.0016065501 -0.0011326096 0.001388551 0.0003607866 0.00082348 -0.00051375676 -0.00025851096 0.00014748913 0.0010488889 0.0012321569 0.00068831147 -0.00016610647 -0.0006456163 0.000789089 -0.0007699363 -0.0014427946 -0.0005016179 -0.0014318915 -0.00013368373 0.0012257065 0.0012261629 0.0010072589 0.00091689354 0.00044753688 0.0003776493 -0.0014859098 -0.00068411045 0.00046943137 -0.00035675804 -0.0016300001 -0.0013852074 0.0014901318 -3.0905565e-05 -0.0005455698 0.0013704621 0.0013328752 0.0007954801 -0.00033512493 0.0007950372 -0.0011875018 0.000771679 0.0011887818 -0.0006451172 0.0013733453 0.0004372061 0.00073468743 0.0002965193 0.00017312374 -0.0008696319 -0.00023403819 0.0007636708 -0.001244534 0.0015687342 0.00063955557 -0.00068001315 -0.00018306651 0.0016212745 -0.00033845863 0.0005883603 0.00018181553 -0.000447546 0.00087036705 0.00012481849 0.00107084 0.0015250955 0.00046384177 -7.687429e-06 -0.00010101722 -0.0006768265 0.000910894 0.0008877569 -0.0011682897 0.0010464396 -0.00019270604 0.0001173174 0.0009014945 0.00092385017 9.100869e-05 -0.0009412645 -0.0010521119 -0.0004000296 -0.00071795256 -0.0011167648 0.0014745186 3.6908068e-06 -0.00027540376 0.000636478 -0.000121892175 0.00060688617 0.0007339233 -0.0003153844 -0.0010382107 -0.00054125773 0.0014113982 0.00020280725 0.0015582303 0.0016488222 -0.0016665128 -0.0015036637 -0.00085084065 0.00020151983 0.00095414236 -0.00058137556 -1.6276183e-05 0.00016503362 0.0014211753 -0.000686887 0.00070223835 0.001321558 -0.00059705524 -0.0010963124 0.0012509207 0.00061591493 0.0014584975 -0.00029426606 -0.0016309359 -0.0002340445 0.00010751896 0.0013476701 -0.00032805282 -0.0005702352 5.3083986e-06 0.0013326453 0.00043683278 -0.0012910449
http://purl.bioontology.org/ontology/LNC/2160-0 0.019286714 0.06853882 -0.09120373 -0.0496854 0.04622005 -0.045636427 0.11975755 -0.09480887 -0.11627192 0.08267497 0.23365755 -0.07269692 0.109275654 0.12807587 -0.2535067 0.062161446 -0.2594862 -0.003652387 -0.16425207 0.006560511 0.028457016 -0.23468661 -0.007307652 0.025593704 0.25940204 -0.077118054 0.20877175 0.048013292 0.10349203 0.15509726 0.09805396 -0.24438863 -0.097776435 0.033116877 0.23575316 0.031593315 -0.17209531 0.30607015 -0.05366462 0.09804159 -0.28027245 -0.23010129 0.07294654 -0.0009218496 -0.27729017 0.21808943 0.14915155 -0.07536882 0.027476232 0.14622147 0.22022766 0.1569685 0.012934005 0.08149102 0.29410222 -0.088997714 0.10699862 0.025046768 0.078956895 -0.13066503 -0.10665246 -0.0036964773 0.10761495 0.07338349 -0.0704616 0.073051445 0.08640344 -0.017164534 0.027308758 0.15043354 -0.008934201 0.12958771 -0.15537842 -0.011842231 -0.3176399 0.36503717 0.120522656 -0.045285236 0.13896945 -0.06646082 -0.13173603 -0.06136084 0.07619383 0.16079012 0.10488805 0.20409681 -0.15653913 0.03780506 -0.033962477 -0.03465179 0.057319555 0.20927137 0.15996455 0.07314866 0.017772855 0.14413466 -0.006993608 0.062406536 0.18504407 0.13712008 -0.10363329 0.07127193 -0.22790007 0.06707974 -0.2777595 -0.0018909614 -0.1110946 0.18499291 0.043507263 -0.058792304 -0.12529813 -0.10246464 0.26470828 0.26831037 0.04847103 -0.13882059 -0.14977008 0.13813862 0.046332702 0.06528416 -0.16271105 -0.106444694 -0.11841969 -0.24318537 -0.07551699 -0.033848714 -0.10158383 0.19529834 0.036161967 -0.2686589 -0.09745724 -0.13438573 -0.144888 -0.08377402 -0.28599164 0.030181399 -0.12208772 0.07327662 0.19721119 -0.008329238 -0.10146712 -0.15860711 0.12250492 0.12629566 0.21454361 0.029987557 0.100798465 0.14023246 0.09328656 0.02693793 0.012118495 0.06959955 0.06442544 0.13542241 -0.16200525 -0.2513096 -0.04908248 0.18012244 -0.013780213 0.17772163 -0.18676305 0.15061145 -0.23842658 -0.16254054 0.20023453 0.13169853 0.17036252 0.091504 0.07221814 0.14061815 -0.013623212 0.015465655 0.0006750088 -0.010754819 -0.06347897 0.39659333 0.16103804 -0.010649243 -0.061444756 0.037348397 0.2366312 -0.014583868 -0.04723055 -0.22713734 -0.077746905 -0.084955126 -0.13067691 0.10928195 -0.06316613 0.039818693 0.10125584 0.053186893 0.060875803 0.13071166 -0.14055896 0.32978293 -0.04478088 0.1516408 0.12159022 -0.23752391 -0.105274215 -0.16035923 0.009067031 -0.097784445 0.1831729 -0.1868888 -0.12117343 -0.07358727 0.19087718 -0.1346551 0.11321894 0.24816917 -0.05226423 -0.27608728 -0.17448042 0.095796786 0.1382051 0.19555263 0.14622355 -0.39521813 -0.079119466 0.08871669 -0.030132355 -0.1561348 0.31287464 0.18110743 0.04229574 0.019000616 0.16208713 0.17799439 -0.010612421 0.05337686 0.124284126 0.15400428 0.2095227 0.31457818 0.022284951 0.08374256 0.09643609 -0.077689625 -0.08634514 0.39402932 -0.0999443 0.22221637 0.111657456 -0.37061253 -0.023056425 -0.22626705 -0.25428024 -0.0724948 0.07955877 0.31452802 -0.18321507 -0.07030095 0.01152866 0.3544613 -0.0038454167 -0.24806806 0.00015740452 0.09195442 0.061758157 0.011605289 0.1628676 0.18332024 0.32218128 -0.09502963 0.06891171 0.004046246 -0.016415909 -0.14877692 -0.06368838 -0.18013209 -0.23690394 0.31842023 -0.06937657 -0.20180368 0.4100582 0.10659012 -0.0042343517 -0.15641233 -0.11776769 0.012713264 0.06551437 0.103082344 -0.009529989 -0.091739304 -0.060535695 -0.1016939 -0.003844051 -0.09413155 0.15005659 0.13426635 -0.17030631 0.08751222 -0.1686134 0.09123362 -0.12744325 -0.10543595 -0.16234292 -0.19081967
http://purl.bioontology.org/ontology/LNC/42871-4 -0.11413961 0.05901002 -0.0034897884 -0.011874333 0.20392445 -0.14898832 0.06403692 -0.025194531 -0.13829337 0.023182329 0.09333812 0.0014097288 0.074283294 0.049175862 -0.06094062 0.09337556 -0.09824807 -0.0512753 -0.1044954 -0.011445718 -0.07679178 -0.042285748 -0.084641255 0.16938148 0.19340457 0.026158394 0.0721693 -0.04493858 0.11757592 0.15766698 0.0018615344 -0.11063197 -0.071343966 0.0805491 0.18299212 0.03127421 -0.13558306 0.029693885 -0.08736866 -0.05521365 -0.17631324 -0.18412411 0.049366064 -0.024533223 -0.10106419 0.08292531 0.1459425 -0.021452462 0.22141778 0.07302936 0.062363934 0.10914327 -0.06753491 0.0911164 0.17632541 -0.06739588 0.06955583 0.012293182 0.06234593 -0.13168901 -0.0546186 -0.056401465 0.010303368 0.07147722 -0.11240459 0.15991333 0.11391097 -0.0013224054 -0.10411747 0.25216365 -0.022771578 0.015758906 0.020723883 -0.008226732 -0.20377997 0.3064496 0.031260997 -0.025482513 0.23766242 -0.06536788 0.038561836 -0.10001176 0.13471058 0.15849152 0.09073862 0.05072797 0.050244857 -0.05190172 -0.024708806 -0.07592882 -0.008461783 0.18824506 0.07881688 -0.012487061 0.007039285 0.03702248 -0.026479838 0.08811343 0.068860576 0.01617886 -0.031231888 0.076747894 -0.11139815 0.05816416 -0.074733935 0.05815637 -0.008397657 0.07283259 0.06810908 0.021364827 -0.07666438 -0.03630443 0.09084939 0.15033202 0.057676654 0.0353759 -0.1278244 0.09525375 0.09449819 0.105723634 -0.11350233 0.017286709 -0.04997996 -0.18878745 -0.06401192 -0.13448673 -0.006062568 0.2348671 -0.07556517 -0.08364547 -0.092159644 -0.05156752 -0.05613808 0.009285434 -0.14409512 0.1449455 -0.05384172 0.2259914 0.2151439 -0.121748276 -0.15948644 -0.13101326 0.0667622 0.113414094 0.108963296 -0.0645584 0.10385978 0.09267068 -0.060942195 0.026273647 -0.07968375 -0.04039632 -0.0075892615 0.19925019 -0.09810689 -0.087214746 0.03381895 -0.014830661 -0.030122697 0.02369653 -0.2463408 0.1399631 -0.11805692 -0.16235451 -0.0029272633 0.07138556 0.16313684 0.0563033 -0.0154617755 -0.022041468 -0.071928106 0.10238092 -0.08049761 0.02279423 -0.05963518 0.14326197 0.04668732 -0.059782233 -0.027991224 0.12847383 0.27932313 0.050715767 0.04818736 -0.101927474 -0.079493746 -0.013382687 -0.012096011 -0.09166412 -0.01682232 -0.08261263 -0.07633868 -0.028112777 0.022731796 -0.051006332 -0.011377361 0.15984543 -0.06248527 0.20157513 0.10595758 -0.09541015 -0.029132063 -0.1028116 -0.02887326 0.038611647 0.1079795 -0.06995175 -0.075152546 -0.027592534 0.285775 -0.16585827 0.0657261 0.12601735 -0.081613906 0.029788682 -0.15343395 0.02747954 0.10027132 0.069223724 0.12900043 -0.2388904 0.027003968 0.031512197 0.020263461 -0.11042107 0.20884325 0.17327404 -0.057994217 0.10839701 0.048058197 0.20557156 0.021802789 0.06422365 0.07182579 0.1458912 0.2425999 0.19979976 0.0031158514 0.090501115 0.13308717 -0.13160798 -0.098067656 0.23071182 -0.13384923 0.14858125 0.04413652 -0.04068268 -0.072052084 -0.083109334 -0.07313156 -0.1474889 0.026663322 0.20023595 -0.08813778 -0.08063325 -0.011810042 0.18990105 -0.13328314 -0.019068688 -0.010292331 0.08101311 0.004160876 -0.005756829 0.14119524 0.019576743 0.19281605 -0.19228107 0.09502916 -0.025142124 0.016442377 -0.10866435 -0.06447985 -0.10346485 -0.21467404 0.078944154 0.02566534 -0.19723822 0.13296007 0.02311664 0.03214914 -0.13970938 -0.04503028 -0.06685202 -0.0928596 -0.033852793 0.0124942195 -0.1214482 0.05637378 -0.0389314 0.021631828 -0.14708202 0.028113406 0.11352457 -0.1179681 0.045301374 -0.0974573 0.056688737 0.022399569 -0.16414532 -0.13452113 -0.0062072203
http://purl.bioontology.org/ontology/LNC/5804-0 0.12224499 0.10656424 -0.15562022 -0.277842 -0.0046738363 -0.08176305 0.21354608 -0.17657304 -0.23972574 0.105462335 0.5247756 -0.08836294 0.124955505 0.19511165 -0.37459663 0.14702573 -0.45370945 0.12553959 -0.103576556 0.016594937 0.16985568 -0.46799412 0.23717168 0.07139126 0.42821854 -0.16141467 0.39705777 0.24578448 0.19490503 0.29512367 -0.053559262 -0.48677266 -0.42216685 0.08033717 0.31494722 0.028496657 -0.29861075 0.6084415 -0.034330867 0.15475452 -0.5308613 -0.35659957 0.13857882 0.15408885 -0.38940436 0.41362482 0.18388037 -0.03542485 -0.1343549 0.2048035 0.46791297 0.31595513 0.15311475 0.19374314 0.61740535 0.07003139 0.2914777 0.05146301 0.14030379 -0.229024 -0.22914371 -0.19663289 0.18450387 0.20746656 -0.11418578 0.10317521 0.08051117 -0.00845194 0.123321205 0.18909991 0.014520234 0.057862815 -0.36843082 0.04746869 -0.5305797 0.67774695 0.3861779 -0.13071838 0.2141407 -0.11525259 -0.23987359 -0.02222106 -0.06030518 0.23857416 0.3134193 0.2658608 -0.25406736 0.070090055 0.0060844547 -0.076037735 0.08754006 0.2662611 0.4016639 0.17910655 -0.029747479 0.31873038 0.0053813867 0.024865843 0.30734634 0.16713946 -0.032243345 0.10446265 -0.53825706 0.15435885 -0.48783332 -0.031602796 -0.41106588 0.40625843 0.069995634 -0.14071387 -0.2607868 -0.19852531 0.5336553 0.49448556 0.17600887 -0.21088055 -0.35213608 0.32681847 0.005176454 0.26157317 -0.26750836 -0.11274697 -0.12773491 -0.46182457 -0.08330108 0.01273761 -0.16012219 0.44966075 -0.015065227 -0.4995562 -0.1167069 -0.1505128 -0.3261059 -0.23648098 -0.60318065 -0.109236635 -0.28631422 0.08128046 0.06555642 0.06066719 -0.015267173 -0.23964289 0.3072208 0.09765701 0.28599286 -0.18285152 -0.047166616 0.17326853 0.27774113 -0.057071127 0.057405204 0.14010377 0.17080076 0.2961529 -0.21219915 -0.52451146 -0.1441934 0.35245502 0.093690574 0.40776294 -0.35000262 0.15626186 -0.38136265 -0.25470182 0.38788444 0.20419465 0.26444817 0.16498779 0.19152531 0.23163658 -0.041900057 -0.010057559 -0.14028805 -0.06261371 -0.13695477 0.78919494 0.26885957 0.015320997 -0.17942075 0.18987523 0.34018442 0.006052093 -0.17611544 -0.29759404 -0.06474865 -0.09330626 -0.14202355 0.29386297 -0.18746328 0.15657552 0.29715303 0.22379336 0.23539872 0.3559438 -0.27254152 0.44436514 -0.060307357 0.2082807 0.13688941 -0.3406635 -0.17491707 -0.27826262 0.16506438 -0.065997094 0.34841827 -0.2964355 -0.20699695 -0.00072339276 0.1446991 -0.2334557 0.15557554 0.42475605 -0.14020102 -0.719959 -0.17122672 0.25965133 0.21829061 0.42202157 0.17522454 -0.5805839 -0.084272526 0.21333754 0.012512371 -0.41971302 0.60853356 0.25289163 0.038582724 0.014440368 0.33335888 0.12095697 0.033257358 0.028593957 0.20842785 0.2255531 0.1289862 0.5045693 -0.010980033 0.05627119 -0.02057579 -0.090448335 -0.09181976 0.5861317 -0.107562155 0.36881953 0.26502854 -0.73368555 -0.08671123 -0.45144674 -0.5646299 -0.030898144 0.032012023 0.5996919 -0.3578021 0.020675711 -0.0053339503 0.44173393 0.0812763 -0.27889797 -0.10822948 0.11363437 -0.023739567 0.027983898 0.22645545 0.36847907 0.39742875 -0.30095214 0.12987638 -0.0059367674 -0.09250727 -0.13513583 -0.04824505 -0.28764117 -0.36245415 0.60380435 -0.04824082 -0.20825791 0.72023606 0.21838234 0.00086818705 -0.26764318 -0.15577787 0.034093395 0.07660504 0.11760723 -0.1508066 -0.17307167 -0.0512936 -0.07897354 -0.07539332 -0.12598053 0.074583724 0.20656966 -0.31895202 0.08611433 -0.18733501 -0.05391049 -0.42747545 -0.21864308 -0.29404044 -0.38461635
http://purl.bioontology.org/ontology/LNC/33369-0 -0.12116791 0.059887033 0.009992696 0.004007407 0.22627655 -0.20172659 0.0668589 0.0072267535 -0.164136 0.013679236 0.11927365 0.0013758704 0.07796924 0.058731392 -0.04502663 0.086172745 -0.090834886 -0.05184844 -0.119613044 -0.002047024 -0.075486325 -0.022546737 -0.09521731 0.18522634 0.19745025 0.03843337 0.09053365 -0.08332461 0.115663566 0.1810536 -0.025045127 -0.11793584 -0.07321202 0.106582984 0.17873569 0.0104655735 -0.1474074 -0.029571675 -0.08173927 -0.034682922 -0.18876563 -0.17112958 0.032776605 -0.017183993 -0.117560305 0.053475715 0.16017231 -0.006005707 0.25499383 0.075302 0.04556686 0.11690615 -0.06505003 0.0944064 0.15875444 -0.07457846 0.08007354 -0.0026831795 0.08849627 -0.14316906 -0.069796 -0.06160833 0.0094388155 0.09403988 -0.12102829 0.1874666 0.1378443 0.01345359 -0.12935458 0.2697493 -0.029842587 -0.006963443 0.0030644366 -0.038208306 -0.23061761 0.32897505 0.023980483 -0.05373282 0.28053313 -0.077910334 0.070157826 -0.10329856 0.1678874 0.18083596 0.12390411 0.05034634 0.08845924 -0.011434483 -0.039141152 -0.08277318 -0.002333924 0.23650402 0.10423291 -0.00042562452 0.016951589 0.049164247 -0.0322938 0.10794567 0.04926775 0.019096801 -0.047991354 0.0645559 -0.13493976 0.05706002 -0.04897085 0.09789253 0.015018153 0.088466205 0.06687932 0.010115346 -0.08838777 -0.029790279 0.08119727 0.17185345 0.066823274 0.061319593 -0.14242578 0.11528751 0.10808336 0.118909776 -0.124837175 0.037165355 -0.0008915565 -0.18475108 -0.07948894 -0.18042916 -0.010574664 0.25425518 -0.07328229 -0.07901995 -0.10282833 -0.04424905 -0.086819686 0.030812578 -0.14307806 0.1775676 -0.06285203 0.27990466 0.2323033 -0.13958609 -0.19380784 -0.15207964 0.06042155 0.11142408 0.14916748 -0.07975426 0.13071828 0.094510116 -0.07784139 0.070843786 -0.11908425 -0.046537124 -0.0022465645 0.18176621 -0.13522363 -0.0972137 0.03759067 -0.037598085 -0.037301335 0.017998967 -0.24706075 0.17106119 -0.14995037 -0.16106504 -0.017017208 0.10883468 0.19595182 0.033979546 -0.041999433 -0.036738567 -0.10505155 0.1262124 -0.077923894 0.00942808 -0.055775627 0.1508226 0.0381529 -0.04787501 -0.017551158 0.13388458 0.31834513 0.066604465 0.06341254 -0.10859264 -0.09281872 -0.017467542 -0.018506553 -0.111208566 -0.029344294 -0.11577028 -0.11520813 -0.04691406 0.02146425 -0.06384152 -0.014592089 0.18203534 -0.099337384 0.21636973 0.102316275 -0.08779487 -0.02547391 -0.09104657 -0.03985089 0.035010364 0.11940841 -0.07944085 -0.09694265 -0.06364293 0.3140415 -0.1976982 0.07710398 0.14001337 -0.10142586 0.06688845 -0.14573331 0.00202305 0.101898365 0.07599436 0.12270387 -0.2447082 0.0048893555 0.014405843 0.034548253 -0.09902825 0.25760528 0.18499565 -0.08554996 0.13519576 0.053755157 0.2346922 0.0034251153 0.08307603 0.059836343 0.148663 0.27370775 0.21242277 0.0130567225 0.11464156 0.16811907 -0.15306193 -0.11070972 0.23816589 -0.14212707 0.1725746 0.032838076 -0.033069886 -0.07802741 -0.07534288 -0.07434125 -0.14628938 0.047254886 0.2020455 -0.08818396 -0.09808336 -0.020275377 0.23090157 -0.1481375 -0.009345428 -0.006066559 0.04945077 -0.016565135 -0.028432986 0.15275392 0.013616767 0.23530377 -0.20862992 0.09245199 -0.018434148 0.032819267 -0.12997761 -0.06780944 -0.12894246 -0.22100933 0.06999817 0.035048753 -0.198764 0.104453444 0.008255624 0.05728641 -0.16060074 -0.034454368 -0.08182742 -0.12012864 -0.023968717 0.013773963 -0.10077974 0.0913818 -0.077001445 0.039403513 -0.20862825 0.034835055 0.09392604 -0.13048592 0.07486361 -0.08151493 0.10359413 0.036080368 -0.16757691 -0.14525759 0.023895834
http://purl.bioontology.org/ontology/LNC/29247-4 -0.16596933 0.14351198 0.0014551934 0.043779515 0.20485507 -0.21817845 0.10126848 -0.062109224 -0.0663074 0.04892585 0.16641323 -0.006290958 -0.022080764 0.01304077 -0.015395082 0.070473626 -0.1424792 -0.0670998 -0.18622021 -0.014368782 -0.04756766 -0.099129304 -0.078846216 0.08349943 0.17124705 -0.04922337 0.07969846 -0.011842318 0.06350231 0.13672186 -0.002152382 -0.021514555 -0.004712665 0.076773435 0.22293344 -0.02349628 -0.15570897 0.071034074 -0.11879544 -0.019102905 -0.16451785 -0.17072043 0.030925868 -0.07428877 -0.17671518 0.05987086 0.16811773 -0.037669268 0.1936368 0.10174198 0.045769922 0.10725121 -0.03882197 0.035999592 0.19505434 -0.1397531 0.07497042 -0.011732101 0.1006091 -0.17238271 0.0067162337 0.050105754 0.05673506 0.06740774 -0.1087256 0.11100226 0.11368019 -0.019796586 -0.14863017 0.224561 -0.05218216 0.07507064 0.110328965 -0.05320149 -0.20360607 0.33458206 0.021993542 0.048897296 0.22576699 -0.12393953 0.00879171 -0.13596047 0.12410407 0.14141786 0.0047813016 0.12076454 0.01564288 -0.06318606 -0.039846834 -0.09639585 0.005303239 0.24028611 0.080342084 -0.0058291457 -0.015914775 0.116495684 -0.015070974 0.057008445 0.13821709 0.083644316 -0.015911574 0.12854984 -0.08043712 0.12292527 -0.11112028 0.03549592 0.071340516 -0.0033635718 0.010646452 0.05229914 -0.10838755 -0.12486799 0.043337777 0.08661548 0.05454322 -0.006077846 -0.14422269 0.021095876 0.091216356 0.16298383 -0.11940287 0.021230226 -0.09550203 -0.21646857 -0.05220395 -0.10843298 -0.04384681 0.23555912 -0.08240751 -0.10067006 -0.056084797 -0.021640712 -0.05960124 0.07002804 -0.10571426 0.119366966 -0.06151447 0.19309372 0.28099507 -0.08986027 -0.19160086 -0.123492636 -0.00080380955 0.14661309 0.13812762 0.0037085367 0.10048112 0.10079482 -0.054945283 0.068675414 -0.032764092 0.026435187 -0.018354189 0.1344645 -0.050491784 -0.12971881 0.04351795 -0.07923094 -0.002178511 0.03850182 -0.25552803 0.1523159 -0.15079743 -0.1141636 0.0077732517 0.09873737 0.24409959 0.011049949 -0.006585655 0.040045056 -0.021846917 0.058167525 -0.08610659 0.012003645 -0.06334705 0.10372535 0.018755121 -0.06664162 -0.09274814 0.16327329 0.22288187 0.05823809 0.13767162 -0.1036885 -0.12591474 0.00594668 0.056043755 -0.06145125 0.026746666 -0.08779198 -0.016330501 -0.041430604 -0.045494873 -0.08502364 0.015016374 0.16232167 0.016401451 0.19652115 0.14695707 -0.17526664 -0.048161082 -0.11200773 -0.045666352 0.0021016814 0.099341564 -0.024344016 -0.0911598 -0.053606603 0.345393 -0.23538187 0.021368477 0.13151 -0.07539284 0.06187493 -0.1484532 -0.021371275 0.09053561 0.1039387 0.064865984 -0.24498561 -0.014207502 0.03863247 0.06846671 -0.024125438 0.15266018 0.071831025 -0.008352282 0.10737334 0.016792133 0.2551946 -0.040625315 0.12146304 0.08173033 0.1755329 0.22118391 0.25997868 -0.039852694 0.09164147 0.12614138 -0.22583482 -0.103906594 0.14860542 -0.107558124 0.1738338 0.07725235 -0.12790674 -0.049047787 -0.09652249 -0.0061097834 -0.16796102 0.015170277 0.19176139 -0.0726368 -0.09618984 0.014134112 0.33509028 -0.11722285 -0.13575803 0.026224764 0.11974926 -0.016701365 -0.008664608 0.16516264 0.024919929 0.19673972 -0.1623939 0.07256195 -0.083734296 -0.04882434 -0.08907493 -0.14343232 -0.07374115 -0.1706754 0.020207211 0.05576128 -0.25104904 0.19193885 0.07378104 -0.055410635 -0.15696914 -0.12565021 -0.07656589 -0.11438959 0.07468919 -0.06522454 -0.12904318 -0.027401736 -0.019931944 0.024381388 -0.12219453 0.020468332 0.040672455 -0.14444233 0.04861615 -0.084615454 0.07425253 -0.033869434 -0.21335068 -0.10099661 -0.06975791
http://purl.bioontology.org/ontology/LNC/1994-3 -0.19549063 0.19673388 -0.048663862 0.041882697 0.22198261 -0.27729347 0.052605774 -0.080193944 -0.15782782 0.08654678 0.2590017 -0.020567149 -0.13982782 -0.074304335 -0.014252601 0.101231456 -0.194984 -0.07895673 -0.20463672 0.0151546635 -0.04563322 -0.15378903 -0.08722563 0.060750533 0.18223134 -0.06594716 0.08422151 0.0671453 0.08719793 0.22099125 -0.056946702 0.0038196512 -0.029733287 0.0972994 0.28771666 0.03578732 -0.2248725 0.13295658 -0.13781579 -0.0056194016 -0.31953388 -0.18744439 0.031251658 -0.11741763 -0.19337498 0.102138944 0.19006097 -0.14381546 0.24503516 0.08203611 0.07748224 0.23720329 0.054032534 -0.066676944 0.31444278 -0.19778384 0.07407658 0.0017520981 0.1546223 -0.23608121 0.028536923 -0.017462298 0.083353296 0.09768255 -0.13783894 0.07638593 0.09245847 -0.015236075 -0.088339426 0.23171617 -0.073230125 0.11618816 0.09467178 -0.15296285 -0.18855748 0.4376898 0.02879868 0.059362978 0.21665294 -0.13294177 -0.008815509 -0.17324561 0.010952485 0.18813208 -0.069078684 0.115766175 -8.798338e-05 -0.07193919 -0.056491524 -0.09379261 0.020554451 0.29007345 0.07669018 0.016761428 -0.06467142 0.21778911 -0.046329375 0.058619466 0.21667477 0.12696232 -0.07985786 0.14458093 -0.069659 0.10023969 -0.21032004 0.026272926 0.030739482 0.0036726934 0.06219653 0.036446 -0.14307036 -0.16573358 0.05815504 0.04171726 0.077952094 -0.12383737 -0.2070369 0.03384015 0.060477782 0.24527195 -0.2296999 -0.026705194 -0.11691767 -0.25798067 -0.09207376 -0.10908674 -0.03766115 0.31057814 -0.14590801 -0.12912637 -0.06868484 0.06283894 -0.11325077 0.023067769 -0.058101024 0.09792079 -0.0466131 0.2422416 0.33998495 -0.08958472 -0.10842708 -0.14000759 -0.022235507 0.1794234 0.18546928 0.014528846 0.10844054 0.12495364 0.01172345 0.04598274 0.009619143 0.10371341 0.060704492 0.055019755 -0.07031483 -0.15515369 -0.026272297 -0.09220434 0.023148261 0.030868242 -0.19886339 0.18927221 -0.15581895 -0.10636162 0.04412844 -0.001742807 0.23335971 -0.05382837 0.10540435 0.08345864 0.03777418 0.03901434 -0.090715885 -0.057740826 -0.0966248 0.14507851 -0.0056285234 -0.06534282 -0.08723765 0.17076322 0.23070164 0.030688906 0.13795424 -0.09806538 -0.2052896 -0.014068776 0.09653285 -0.038525976 0.03065015 -0.1419681 0.0494045 -0.051949985 -0.060873333 -0.08700168 -0.031653628 0.22437923 0.020847704 0.22001305 0.11376305 -0.23733458 -0.08129323 -0.18610443 -0.024215173 -0.0568875 0.10491954 0.012820241 -0.0573535 -0.03752211 0.41751617 -0.2683911 -0.060351416 0.23239459 -0.107819974 0.030204577 -0.20326145 -0.0726457 0.05833852 0.15815015 0.07819098 -0.3545359 -0.092470385 0.02093586 0.10220174 -0.06392786 0.21358564 -0.004012106 0.026654629 0.081553005 0.06340784 0.2968165 -0.038624063 0.116843216 0.07638786 0.2453559 0.15874937 0.32840443 -0.036803667 0.06613155 0.11841132 -0.251312 -0.09594774 0.1187683 -0.12440162 0.17891279 0.12659107 -0.281169 -0.08506289 -0.11267665 -0.06585818 -0.1326515 -0.03430698 0.28411576 -0.13687022 -0.06957151 0.10996544 0.45674986 -0.1218491 -0.23453748 0.031322934 0.21374391 -0.054435305 -0.023428235 0.19524181 0.060005095 0.30601597 -0.15049472 0.1448027 -0.09381388 -0.09100034 -0.04953737 -0.23261711 -0.16974181 -0.17690547 0.039631106 0.03144053 -0.2654784 0.24026026 0.12120359 -0.021188058 -0.13281743 -0.14461507 -0.07691769 -0.12631501 0.09310603 -0.12477363 -0.09953067 -0.12366162 -0.056710456 0.00028521408 -0.07882404 -0.054750215 -0.039408967 -0.1507524 0.04955537 -0.14634587 0.0631097 -0.0994035 -0.24136452 -0.09433336 -0.13196932
http://purl.bioontology.org/ontology/LNC/57400-4 -0.12924594 0.0838787 -0.019622235 -0.03416724 0.21439996 -0.1563373 0.047916528 -0.0161845 -0.14286183 0.03189297 0.09989294 -0.006442122 0.05637613 0.043169387 -0.04407022 0.068902686 -0.10746251 -0.030379672 -0.1215139 -0.0025895697 -0.08517667 -0.0651069 -0.09460344 0.1649282 0.1984224 0.006615397 0.09863096 -0.042629544 0.09105283 0.15377322 -0.011578653 -0.106621064 -0.051408146 0.112773195 0.17293999 0.021804962 -0.15124756 0.031875093 -0.104211085 -0.044776164 -0.16634114 -0.18365708 0.0458307 -0.032684505 -0.130887 0.0672475 0.1540557 -0.021976905 0.23623149 0.07315414 0.062083513 0.12151933 -0.054912917 0.06633275 0.17886983 -0.0711389 0.065708645 0.017481076 0.052479006 -0.1569345 -0.043209452 -0.059901983 0.028339883 0.074877076 -0.1253235 0.15542798 0.10012695 -0.0032046824 -0.07887904 0.25904256 -0.028700711 0.020782828 0.035820033 -0.025919946 -0.22021765 0.32358646 0.019721141 -0.025699075 0.22841431 -0.06926086 0.019891266 -0.11385877 0.12313444 0.17381082 0.07733573 0.0677021 0.06688644 -0.07226062 0.009447796 -0.09094666 -0.015250422 0.19543813 0.09119108 -0.02042922 0.003232112 0.023937972 -0.028614504 0.092996076 0.068155386 0.0069332537 -0.0064294497 0.08890292 -0.11478052 0.056311477 -0.04150627 0.04604877 0.019145098 0.053680804 0.05913827 0.03412704 -0.077571295 -0.058728676 0.09046584 0.14431602 0.06516183 0.025038479 -0.11428344 0.100431554 0.09152756 0.0804153 -0.114851326 0.036765758 -0.052940488 -0.1635141 -0.05875971 -0.15162571 -0.010484235 0.24473791 -0.06745446 -0.07313281 -0.08222001 -0.04431372 -0.043181013 0.026149595 -0.12815535 0.13551067 -0.021750754 0.2338651 0.20296045 -0.15086487 -0.17026597 -0.11855384 0.06333383 0.11743764 0.09655818 -0.06808811 0.0871383 0.089145 -0.07350388 0.02340384 -0.07153165 -0.043235756 -0.00041716144 0.20777103 -0.09806294 -0.084066145 0.016135158 -0.031838965 -0.024691455 0.03160712 -0.23813796 0.14949657 -0.12435259 -0.1553681 -0.025902275 0.07769292 0.1636512 0.04006438 -0.007445633 -0.035364848 -0.06884201 0.10977859 -0.08492192 0.0101543795 -0.05894434 0.121823736 0.027616363 -0.041004688 -0.022699345 0.13928081 0.30179176 0.027698696 0.048665922 -0.11466365 -0.080114774 -0.007895798 -0.008353176 -0.11346819 0.02886585 -0.0876122 -0.057454288 -0.04729216 -0.0011772376 -0.06558888 0.0028576974 0.15974104 -0.065644175 0.20201267 0.108238086 -0.1212186 -0.021234248 -0.10657919 -0.025878128 0.024135197 0.109855875 -0.078081496 -0.08396737 -0.019929094 0.27760348 -0.16565992 0.071734354 0.11952614 -0.057953402 0.04531348 -0.16460426 0.032805238 0.12088661 0.08742476 0.13912977 -0.22249423 0.050158404 0.038157247 0.017712662 -0.09929171 0.20110597 0.1746993 -0.06028582 0.10312847 0.038339462 0.19921492 0.035262648 0.04789348 0.07025385 0.14625712 0.23919499 0.21064512 -0.01732996 0.092339344 0.14344902 -0.15289113 -0.101417944 0.21526998 -0.11046095 0.11815939 0.027706506 -0.035244223 -0.08448292 -0.08508139 -0.078103974 -0.16068976 0.02562595 0.18553719 -0.10963707 -0.077741556 -0.0034200747 0.20335557 -0.12784356 -0.015043625 -0.0064309207 0.08300451 0.003553991 -0.0095948735 0.14776874 0.036862873 0.20764235 -0.18134375 0.09966731 -0.041675434 0.029793426 -0.11366088 -0.096280456 -0.0935385 -0.23215339 0.08172579 0.050808307 -0.20106669 0.1570089 -0.004274262 0.04253483 -0.14353624 -0.035268113 -0.07290657 -0.092676535 -0.04162696 -0.010055504 -0.13252422 0.055658296 -0.020806694 0.039502684 -0.1315706 0.0043886295 0.092742845 -0.117020935 0.044576373 -0.1046968 0.06957037 0.020164013 -0.15858789 -0.11525156 -0.008512503
http://purl.bioontology.org/ontology/LNC/2347-3 0.24077529 0.23385571 -0.16851914 -0.034522712 -0.06638696 -0.08001872 0.22766656 -0.19358222 -0.16448382 0.3727782 0.62885696 -0.17785959 0.2172343 0.42719296 -0.2449816 -0.12700324 -0.5232746 0.10975433 -0.47933063 -0.013816048 0.021925177 -0.40447152 0.08384666 -0.34626558 0.5367407 -0.20151559 0.4325228 0.12540373 0.10953002 0.20931484 0.26908198 -0.24693055 0.07351912 0.084710054 0.27733955 -0.1445059 -0.4363147 0.4829381 -0.07375256 0.20929588 -0.34344736 -0.4721429 0.17286238 0.0297054 -0.5145975 0.36661908 0.28318876 -0.062373366 -0.1743664 0.17850544 0.44492623 0.08730159 0.12253349 0.34616426 0.4068047 -0.054957896 0.16659814 -0.11728945 0.21266896 -0.118470386 -0.10500221 0.16098778 0.33433172 0.17842509 0.05000462 0.16623195 0.37468678 0.07984389 0.06307018 0.09036475 0.09690118 0.27691084 -0.26475042 -0.10822991 -0.6633174 0.39673313 0.2786591 0.015272695 0.3880569 -0.032232467 -0.3485674 -0.1529453 0.09232032 0.23961076 0.12976079 0.41587293 -0.382511 0.31790736 -0.1229882 -0.25124028 0.14867821 0.33392096 0.36116368 0.17650664 0.005385421 0.2584422 -0.090239786 -0.15469645 0.37990966 0.08735401 -0.16865583 0.12554368 -0.72053707 0.3944068 -0.5934585 0.08861934 -0.08416729 0.08874316 -0.090894915 -0.18204255 -0.06725526 -0.33633435 0.16963087 0.41969255 0.07810184 -0.29698193 -0.324932 0.0314857 -0.020813001 -0.01137782 -0.28225875 -0.058928214 -0.19890241 -0.3962688 -0.10601117 -0.19512676 -0.2520351 0.2692898 0.13748156 -0.5626845 -0.25261176 -0.1420674 -0.22899966 -0.08194054 -0.62668544 0.06434968 -0.35742792 0.08524005 0.3320006 0.10633096 -0.13183993 -0.48871055 0.043103665 0.061094772 0.5311397 0.25214204 0.029063877 0.386146 0.2931974 0.073343635 0.015831763 0.15812309 0.106536284 0.23862338 -0.26356784 -0.7125649 -0.027947072 0.08163837 -0.15365985 0.40308905 -0.3548283 0.12742916 -0.6412632 -0.2589514 0.42472082 0.3209674 0.40994924 0.06742185 0.2519641 0.232782 -0.05349571 -0.06819994 -0.07879678 -0.017693106 0.04118604 0.77987385 0.24250863 0.10686262 -0.36201793 0.07324054 0.4311965 0.034716822 -0.20785688 -0.48684898 -0.20460205 -0.16335553 -0.0059478125 0.14691259 0.21248718 0.014465156 0.1472739 0.3227058 0.12373098 0.45173973 -0.15169114 0.4676519 0.04526053 0.08946981 0.27969927 -0.5257632 -0.22300039 -0.13428958 0.0064297505 -0.25249192 0.24473757 -0.39396688 -0.4031721 0.1342642 0.3056288 -0.40367484 0.23371166 0.5058013 -0.14166711 -0.30448955 -0.35757542 0.2840218 0.2111605 0.46630177 0.1393298 -0.6027669 0.10600769 0.21965048 -0.033763863 -0.14762715 0.44022447 0.32682952 0.07828279 0.027918331 0.1982571 0.3868549 -0.21969354 0.10159297 0.12130485 0.3433386 0.38321042 0.61602604 0.12594506 0.34032938 0.14044085 -0.29728025 -0.10147908 0.79758686 -0.13586435 0.44303426 0.30552036 -0.89633435 0.046666622 -0.23433018 -0.3318548 -0.14374913 0.17940053 0.38593414 -0.20216498 -0.0565132 0.033354744 0.8332657 -0.01397656 -0.457371 -0.065839894 -0.008173002 0.14032906 -0.024913218 0.22830112 0.39704013 0.32993877 -0.2481797 0.018089868 -0.06952184 -0.11039718 -0.32102653 -0.13103457 -0.09370317 -0.51263934 0.4930975 -0.05963678 -0.45024106 0.6734058 0.20154336 -0.10211664 -0.43738472 -0.54257053 0.019107703 0.28911206 0.17212637 -0.18180512 -0.16363187 -0.10557297 -0.24089101 -0.035456855 -0.20064308 0.33975685 0.11004157 -0.4125882 0.22233245 -0.21531762 0.13520926 -0.23395288 -0.20126244 -0.27683327 -0.3098653
